{"learner":{"attributes":{},"feature_names":[],"feature_types":[],"gradient_booster":{"model":{"gbtree_model_param":{"num_parallel_tree":"1","num_trees":"2024"},"iteration_indptr":[0,4,8,12,16,20,24,28,32,36,40,44,48,52,56,60,64,68,72,76,80,84,88,92,96,100,104,108,112,116,120,124,128,132,136,140,144,148,152,156,160,164,168,172,176,180,184,188,192,196,200,204,208,212,216,220,224,228,232,236,240,244,248,252,256,260,264,268,272,276,280,284,288,292,296,300,304,308,312,316,320,324,328,332,336,340,344,348,352,356,360,364,368,372,376,380,384,388,392,396,400,404,408,412,416,420,424,428,432,436,440,444,448,452,456,460,464,468,472,476,480,484,488,492,496,500,504,508,512,516,520,524,528,532,536,540,544,548,552,556,560,564,568,572,576,580,584,588,592,596,600,604,608,612,616,620,624,628,632,636,640,644,648,652,656,660,664,668,672,676,680,684,688,692,696,700,704,708,712,716,720,724,728,732,736,740,744,748,752,756,760,764,768,772,776,780,784,788,792,796,800,804,808,812,816,820,824,828,832,836,840,844,848,852,856,860,864,868,872,876,880,884,888,892,896,900,904,908,912,916,920,924,928,932,936,940,944,948,952,956,960,964,968,972,976,980,984,988,992,996,1000,1004,1008,1012,1016,1020,1024,1028,1032,1036,1040,1044,1048,1052,1056,1060,1064,1068,1072,1076,1080,1084,1088,1092,1096,1100,1104,1108,1112,1116,1120,1124,1128,1132,1136,1140,1144,1148,1152,1156,1160,1164,1168,1172,1176,1180,1184,1188,1192,1196,1200,1204,1208,1212,1216,1220,1224,1228,1232,1236,1240,1244,1248,1252,1256,1260,1264,1268,1272,1276,1280,1284,1288,1292,1296,1300,1304,1308,1312,1316,1320,1324,1328,1332,1336,1340,1344,1348,1352,1356,1360,1364,1368,1372,1376,1380,1384,1388,1392,1396,1400,1404,1408,1412,1416,1420,1424,1428,1432,1436,1440,1444,1448,1452,1456,1460,1464,1468,1472,1476,1480,1484,1488,1492,1496,1500,1504,1508,1512,1516,1520,1524,1528,1532,1536,1540,1544,1548,1552,1556,1560,1564,1568,1572,1576,1580,1584,1588,1592,1596,1600,1604,1608,1612,1616,1620,1624,1628,1632,1636,1640,1644,1648,1652,1656,1660,1664,1668,1672,1676,1680,1684,1688,1692,1696,1700,1704,1708,1712,1716,1720,1724,1728,1732,1736,1740,1744,1748,1752,1756,1760,1764,1768,1772,1776,1780,1784,1788,1792,1796,1800,1804,1808,1812,1816,1820,1824,1828,1832,1836,1840,1844,1848,1852,1856,1860,1864,1868,1872,1876,1880,1884,1888,1892,1896,1900,1904,1908,1912,1916,1920,1924,1928,1932,1936,1940,1944,1948,1952,1956,1960,1964,1968,1972,1976,1980,1984,1988,1992,1996,2000,2001,2002,2003,2004,2005,2006,2007,2008,2009,2010,2011,2012,2013,2014,2015,2016,2017,2018,2019,2020,2021,2022,2023,2024],"tree_info":[0,1,2,3,0,1,2,3,0,1,2,3,0,1,2,3,0,1,2,3,0,1,2,3,0,1,2,3,0,1,2,3,0,1,2,3,0,1,2,3,0,1,2,3,0,1,2,3,0,1,2,3,0,1,2,3,0,1,2,3,0,1,2,3,0,1,2,3,0,1,2,3,0,1,2,3,0,1,2,3,0,1,2,3,0,1,2,3,0,1,2,3,0,1,2,3,0,1,2,3,0,1,2,3,0,1,2,3,0,1,2,3,0,1,2,3,0,1,2,3,0,1,2,3,0,1,2,3,0,1,2,3,0,1,2,3,0,1,2,3,0,1,2,3,0,1,2,3,0,1,2,3,0,1,2,3,0,1,2,3,0,1,2,3,0,1,2,3,0,1,2,3,0,1,2,3,0,1,2,3,0,1,2,3,0,1,2,3,0,1,2,3,0,1,2,3,0,1,2,3,0,1,2,3,0,1,2,3,0,1,2,3,0,1,2,3,0,1,2,3,0,1,2,3,0,1,2,3,0,1,2,3,0,1,2,3,0,1,2,3,0,1,2,3,0,1,2,3,0,1,2,3,0,1,2,3,0,1,2,3,0,1,2,3,0,1,2,3,0,1,2,3,0,1,2,3,0,1,2,3,0,1,2,3,0,1,2,3,0,1,2,3,0,1,2,3,0,1,2,3,0,1,2,3,0,1,2,3,0,1,2,3,0,1,2,3,0,1,2,3,0,1,2,3,0,1,2,3,0,1,2,3,0,1,2,3,0,1,2,3,0,1,2,3,0,1,2,3,0,1,2,3,0,1,2,3,0,1,2,3,0,1,2,3,0,1,2,3,0,1,2,3,0,1,2,3,0,1,2,3,0,1,2,3,0,1,2,3,0,1,2,3,0,1,2,3,0,1,2,3,0,1,2,3,0,1,2,3,0,1,2,3,0,1,2,3,0,1,2,3,0,1,2,3,0,1,2,3,0,1,2,3,0,1,2,3,0,1,2,3,0,1,2,3,0,1,2,3,0,1,2,3,0,1,2,3,0,1,2,3,0,1,2,3,0,1,2,3,0,1,2,3,0,1,2,3,0,1,2,3,0,1,2,3,0,1,2,3,0,1,2,3,0,1,2,3,0,1,2,3,0,1,2,3,0,1,2,3,0,1,2,3,0,1,2,3,0,1,2,3,0,1,2,3,0,1,2,3,0,1,2,3,0,1,2,3,0,1,2,3,0,1,2,3,0,1,2,3,0,1,2,3,0,1,2,3,0,1,2,3,0,1,2,3,0,1,2,3,0,1,2,3,0,1,2,3,0,1,2,3,0,1,2,3,0,1,2,3,0,1,2,3,0,1,2,3,0,1,2,3,0,1,2,3,0,1,2,3,0,1,2,3,0,1,2,3,0,1,2,3,0,1,2,3,0,1,2,3,0,1,2,3,0,1,2,3,0,1,2,3,0,1,2,3,0,1,2,3,0,1,2,3,0,1,2,3,0,1,2,3,0,1,2,3,0,1,2,3,0,1,2,3,0,1,2,3,0,1,2,3,0,1,2,3,0,1,2,3,0,1,2,3,0,1,2,3,0,1,2,3,0,1,2,3,0,1,2,3,0,1,2,3,0,1,2,3,0,1,2,3,0,1,2,3,0,1,2,3,0,1,2,3,0,1,2,3,0,1,2,3,0,1,2,3,0,1,2,3,0,1,2,3,0,1,2,3,0,1,2,3,0,1,2,3,0,1,2,3,0,1,2,3,0,1,2,3,0,1,2,3,0,1,2,3,0,1,2,3,0,1,2,3,0,1,2,3,0,1,2,3,0,1,2,3,0,1,2,3,0,1,2,3,0,1,2,3,0,1,2,3,0,1,2,3,0,1,2,3,0,1,2,3,0,1,2,3,0,1,2,3,0,1,2,3,0,1,2,3,0,1,2,3,0,1,2,3,0,1,2,3,0,1,2,3,0,1,2,3,0,1,2,3,0,1,2,3,0,1,2,3,0,1,2,3,0,1,2,3,0,1,2,3,0,1,2,3,0,1,2,3,0,1,2,3,0,1,2,3,0,1,2,3,0,1,2,3,0,1,2,3,0,1,2,3,0,1,2,3,0,1,2,3,0,1,2,3,0,1,2,3,0,1,2,3,0,1,2,3,0,1,2,3,0,1,2,3,0,1,2,3,0,1,2,3,0,1,2,3,0,1,2,3,0,1,2,3,0,1,2,3,0,1,2,3,0,1,2,3,0,1,2,3,0,1,2,3,0,1,2,3,0,1,2,3,0,1,2,3,0,1,2,3,0,1,2,3,0,1,2,3,0,1,2,3,0,1,2,3,0,1,2,3,0,1,2,3,0,1,2,3,0,1,2,3,0,1,2,3,0,1,2,3,0,1,2,3,0,1,2,3,0,1,2,3,0,1,2,3,0,1,2,3,0,1,2,3,0,1,2,3,0,1,2,3,0,1,2,3,0,1,2,3,0,1,2,3,0,1,2,3,0,1,2,3,0,1,2,3,0,1,2,3,0,1,2,3,0,1,2,3,0,1,2,3,0,1,2,3,0,1,2,3,0,1,2,3,0,1,2,3,0,1,2,3,0,1,2,3,0,1,2,3,0,1,2,3,0,1,2,3,0,1,2,3,0,1,2,3,0,1,2,3,0,1,2,3,0,1,2,3,0,1,2,3,0,1,2,3,0,1,2,3,0,1,2,3,0,1,2,3,0,1,2,3,0,1,2,3,0,1,2,3,0,1,2,3,0,1,2,3,0,1,2,3,0,1,2,3,0,1,2,3,0,1,2,3,0,1,2,3,0,1,2,3,0,1,2,3,0,1,2,3,0,1,2,3,0,1,2,3,0,1,2,3,0,1,2,3,0,1,2,3,0,1,2,3,0,1,2,3,0,1,2,3,0,1,2,3,0,1,2,3,0,1,2,3,0,1,2,3,0,1,2,3,0,1,2,3,0,1,2,3,0,1,2,3,0,1,2,3,0,1,2,3,0,1,2,3,0,1,2,3,0,1,2,3,0,1,2,3,0,1,2,3,0,1,2,3,0,1,2,3,0,1,2,3,0,1,2,3,0,1,2,3,0,1,2,3,0,1,2,3,0,1,2,3,0,1,2,3,0,1,2,3,0,1,2,3,0,1,2,3,0,1,2,3,0,1,2,3,0,1,2,3,0,1,2,3,0,1,2,3,0,1,2,3,0,1,2,3,0,1,2,3,0,1,2,3,0,1,2,3,0,1,2,3,0,1,2,3,0,1,2,3,0,1,2,3,0,1,2,3,0,1,2,3,0,1,2,3,0,1,2,3,0,1,2,3,0,1,2,3,0,1,2,3,0,1,2,3,0,1,2,3,0,1,2,3,0,1,2,3,0,1,2,3,0,1,2,3,0,1,2,3,0,1,2,3,0,1,2,3,0,1,2,3,0,1,2,3,0,1,2,3,0,1,2,3,0,1,2,3,0,1,2,3,0,1,2,3,0,1,2,3,0,1,2,3,0,1,2,3,0,1,2,3,0,1,2,3,0,1,2,3,0,1,2,3,0,1,2,3,0,1,2,3,0,1,2,3,0,1,2,3,0,1,2,3,0,1,2,3,0,1,2,3,0,1,2,3,0,1,2,3,0,1,2,3,0,1,2,3,0,1,2,3,0,1,2,3,0,1,2,3,0,1,2,3,0,1,2,3,0,1,2,3,0,1,2,3,0,1,2,3,0,1,2,3,0,1,2,3,0,1,2,3,0,1,2,3,0,1,2,3,0,1,2,3,0,1,2,3,0,1,2,3,0,1,2,3,0,1,2,3,0,1,2,3,0,1,2,3,0,1,2,3,0,1,2,3,0,1,2,3,0,1,2,3,0,1,2,3,0,1,2,3,0,1,2,3,0,1,2,3,0,1,2,3,0,1,2,3,0,1,2,3,0,1,2,3,0,1,2,3,0,1,2,3,0,1,2,3,0,1,2,3,0,1,2,3,0,1,2,3,0,1,2,3,0,1,2,3,0,1,2,3,0,1,2,3,0,1,2,3,0,1,2,3,0,1,2,3,0,1,2,3,0,1,2,3,0,1,2,3,0,1,2,3,0,1,2,3,0,1,2,3,0,1,2,3,0,1,2,3,0,1,2,3,0,1,2,3,0,1,2,3,0,1,2,3,0,1,2,3,0,1,2,3,0,1,2,3,0,1,2,3,0,1,2,3,0,1,2,3,0,1,2,3,0,1,2,3,0,1,2,3,0,1,2,3,0,1,2,3,0,1,2,3,0,1,2,3,0,1,2,3,0,1,2,3,0,1,2,3,0,1,2,3,0,1,2,3,0,1,2,3,0,1,2,3,0,1,2,3,0,1,2,3,0,1,2,3,0,1,2,3,0,1,2,3,0,1,2,3,0,1,2,3,0,1,2,3,0,1,2,3,0,1,2,3,0,1,2,3,0,1,2,3,0,1,2,3,0,1,2,3,0,1,2,3,0,1,2,3,0,1,2,3,0,1,2,3,0,1,2,3,0,1,2,3,0,0,0,0,0,0,0,0,0,0,0,0,0,0,0,0,0,0,0,0,0,0,0,0],"trees":[{"base_weights":[-1.2801763E-1,1.8302213E0,-1.933497E-2,5.6436334E-2,1.7863626E-2],"categories":[],"categories_nodes":[],"categories_segments":[],"categories_sizes":[],"default_left":[0,0,0,0,0],"id":0,"left_children":[1,3,-1,-1,-1],"loss_changes":[1.254617E2,3.2549515E0,0E0,0E0,0E0],"parents":[2147483647,0,0,1,1],"right_children":[2,4,-1,-1,-1],"split_conditions":[3.668974E-4,7.32186E5,-1.933497E-2,5.6436334E-2,1.7863626E-2],"split_indices":[73,0,0,0,0],"split_type":[0,0,0,0,0],"sum_hessian":[1.18875E2,2.55E1,9.3375E1,2.325E1,2.25E0],"tree_param":{"num_deleted":"0","num_feature":"265","num_nodes":"5","size_leaf_vector":"1"}},{"base_weights":[5.8843147E-2,5.7789017E-2,-1.9330218E-2],"categories":[],"categories_nodes":[],"categories_segments":[],"categories_sizes":[],"default_left":[0,0,0],"id":1,"left_children":[1,-1,-1],"loss_changes":[1.6028018E2,0E0,0E0],"parents":[2147483647,0,0],"right_children":[2,-1,-1],"split_conditions":[1.0607908E-4,5.7789017E-2,-1.9330218E-2],"split_indices":[28,0,0],"split_type":[0,0,0],"sum_hessian":[1.14375E2,3.1125E1,8.325E1],"tree_param":{"num_deleted":"0","num_feature":"265","num_nodes":"3","size_leaf_vector":"1"}},{"base_weights":[1.1195582E-2,5.775368E-2,-1.932982E-2],"categories":[],"categories_nodes":[],"categories_segments":[],"categories_sizes":[],"default_left":[0,0,0],"id":2,"left_children":[1,-1,-1],"loss_changes":[1.4833005E2,0E0,0E0],"parents":[2147483647,0,0],"right_children":[2,-1,-1],"split_conditions":[3.5629916E-4,5.775368E-2,-1.932982E-2],"split_indices":[156,0,0],"split_type":[0,0,0],"sum_hessian":[1.10625E2,2.8125E1,8.25E1],"tree_param":{"num_deleted":"0","num_feature":"265","num_nodes":"3","size_leaf_vector":"1"}},{"base_weights":[-0E0,-1.9331926E-2,5.77632E-2],"categories":[],"categories_nodes":[],"categories_segments":[],"categories_sizes":[],"default_left":[0,0,0],"id":3,"left_children":[1,-1,-1],"loss_changes":[1.5317714E2,0E0,0E0],"parents":[2147483647,0,0],"right_children":[2,-1,-1],"split_conditions":[6.4551574E-3,-1.9331926E-2,5.77632E-2],"split_indices":[113,0,0],"split_type":[0,0,0],"sum_hessian":[1.155E2,8.6625E1,2.8875E1],"tree_param":{"num_deleted":"0","num_feature":"265","num_nodes":"3","size_leaf_vector":"1"}},{"base_weights":[-1.1563791E-1,5.464866E-2,-1.9210475E-2],"categories":[],"categories_nodes":[],"categories_segments":[],"categories_sizes":[],"default_left":[0,0,0],"id":4,"left_children":[1,-1,-1],"loss_changes":[1.2902792E2,0E0,0E0],"parents":[2147483647,0,0],"right_children":[2,-1,-1],"split_conditions":[3.668974E-4,5.464866E-2,-1.9210475E-2],"split_indices":[73,0,0],"split_type":[0,0,0],"sum_hessian":[1.1815502E2,2.5260088E1,9.2894936E1],"tree_param":{"num_deleted":"0","num_feature":"265","num_nodes":"3","size_leaf_vector":"1"}},{"base_weights":[-3.601209E-2,1.8084724E0,-1.9207818E-2,2.8363906E-2,5.4547E-2],"categories":[],"categories_nodes":[],"categories_segments":[],"categories_sizes":[],"default_left":[0,0,0,0,0],"id":5,"left_children":[1,3,-1,-1,-1],"loss_changes":[1.2652038E2,1.2365952E0,0E0,0E0,0E0],"parents":[2147483647,0,0,1,1],"right_children":[2,4,-1,-1,-1],"split_conditions":[1.0395768E-3,5.3654486E-1,-1.9207818E-2,2.8363906E-2,5.4547E-2],"split_indices":[108,2,0,0,0],"split_type":[0,0,0,0,0],"sum_hessian":[1.094157E2,2.7602077E1,8.181362E1,2.3117044E0,2.5290373E1],"tree_param":{"num_deleted":"0","num_feature":"265","num_nodes":"5","size_leaf_vector":"1"}},{"base_weights":[1.3891268E-1,-6.239951E-1,5.396232E-2,1.6563534E-3,-1.9203069E-2],"categories":[],"categories_nodes":[],"categories_segments":[],"categories_sizes":[],"default_left":[0,0,0,0,0],"id":6,"left_children":[1,3,-1,-1,-1],"loss_changes":[1.5311317E2,2.03924E0,0E0,0E0,0E0],"parents":[2147483647,0,0,1,1],"right_children":[2,4,-1,-1,-1],"split_conditions":[7.585066E-3,9.74563E-4,5.396232E-2,1.6563534E-3,-1.9203069E-2],"split_indices":[16,156,0,0,0],"split_type":[0,0,0,0,0],"sum_hessian":[1.16485954E2,8.073752E1,3.5748436E1,4.119547E0,7.661797E1],"tree_param":{"num_deleted":"0","num_feature":"265","num_nodes":"5","size_leaf_vector":"1"}},{"base_weights":[5.36469E-2,5.378851E-2,-1.9206954E-2],"categories":[],"categories_nodes":[],"categories_segments":[],"categories_sizes":[],"default_left":[0,0,0],"id":7,"left_children":[1,-1,-1],"loss_changes":[1.4647885E2,0E0,0E0],"parents":[2147483647,0,0],"right_children":[2,-1,-1],"split_conditions":[3.9246534E-3,5.378851E-2,-1.9206954E-2],"split_indices":[11,0,0],"split_type":[0,0,0],"sum_hessian":[1.137099E2,3.2273315E1,8.1436584E1],"tree_param":{"num_deleted":"0","num_feature":"265","num_nodes":"3","size_leaf_vector":"1"}},{"base_weights":[-7.8210264E-2,-1.909188E-2,1.6864922E0,5.184698E-2,1.1475065E0,4.8443627E-2,1.5582313E-2],"categories":[],"categories_nodes":[],"categories_segments":[],"categories_sizes":[],"default_left":[0,0,0,0,0,0,0],"id":8,"left_children":[1,-1,3,-1,5,-1,-1],"loss_changes":[1.20147766E2,0E0,1.1422043E0,0E0,1.3972068E0,0E0,0E0],"parents":[2147483647,0,0,2,2,4,4],"right_children":[2,-1,4,-1,6,-1,-1],"split_conditions":[8.421636E-3,-1.909188E-2,9.831238E-5,5.184698E-2,4.8115784E-3,4.8443627E-2,1.5582313E-2],"split_indices":[51,0,46,0,10,0,0],"split_type":[0,0,0,0,0,0,0],"sum_hessian":[1.1728594E2,8.840733E1,2.8878605E1,2.4095346E1,4.7832584E0,2.4143739E0,2.3688846E0],"tree_param":{"num_deleted":"0","num_feature":"265","num_nodes":"7","size_leaf_vector":"1"}},{"base_weights":[6.524242E-2,-1.9083008E-2,5.1198777E-2],"categories":[],"categories_nodes":[],"categories_segments":[],"categories_sizes":[],"default_left":[0,0,0],"id":9,"left_children":[1,-1,-1],"loss_changes":[1.4562256E2,0E0,0E0],"parents":[2147483647,0,0],"right_children":[2,-1,-1],"split_conditions":[6.489777E-3,-1.9083008E-2,5.1198777E-2],"split_indices":[128,0,0],"split_type":[0,0,0],"sum_hessian":[1.18556175E2,8.323849E1,3.531768E1],"tree_param":{"num_deleted":"0","num_feature":"265","num_nodes":"3","size_leaf_vector":"1"}},{"base_weights":[7.516186E-2,-6.457115E-1,5.1186398E-2,-1.9098654E-2,-5.3491862E-3],"categories":[],"categories_nodes":[],"categories_segments":[],"categories_sizes":[],"default_left":[0,0,0,0,0],"id":10,"left_children":[1,3,-1,-1,-1],"loss_changes":[1.5068143E2,4.309349E-1,0E0,0E0,0E0],"parents":[2147483647,0,0,1,1],"right_children":[2,4,-1,-1,-1],"split_conditions":[6.9199526E-3,8.034367E-3,5.1186398E-2,-1.9098654E-2,-5.3491862E-3],"split_indices":[63,197,0,0,0],"split_type":[0,0,0,0,0],"sum_hessian":[1.23618065E2,8.666789E1,3.6950172E1,8.447324E1,2.1946495E0],"tree_param":{"num_deleted":"0","num_feature":"265","num_nodes":"5","size_leaf_vector":"1"}},{"base_weights":[7.045348E-2,-1.9081194E-2,5.1135067E-2],"categories":[],"categories_nodes":[],"categories_segments":[],"categories_sizes":[],"default_left":[0,0,0],"id":11,"left_children":[1,-1,-1],"loss_changes":[1.4330467E2,0E0,0E0],"parents":[2147483647,0,0],"right_children":[2,-1,-1],"split_conditions":[6.4515457E-3,-1.9081194E-2,5.1135067E-2],"split_indices":[189,0,0],"split_type":[0,0,0],"sum_hessian":[1.1634485E2,8.140645E1,3.49384E1],"tree_param":{"num_deleted":"0","num_feature":"265","num_nodes":"3","size_leaf_vector":"1"}},{"base_weights":[-7.922031E-2,1.6283474E0,-1.896371E-2,2.0825043E-2,4.9381405E-2],"categories":[],"categories_nodes":[],"categories_segments":[],"categories_sizes":[],"default_left":[0,0,0,0,0],"id":12,"left_children":[1,3,-1,-1,-1],"loss_changes":[1.0197961E2,1.4562302E0,0E0,0E0,0E0],"parents":[2147483647,0,0,1,1],"right_children":[2,4,-1,-1,-1],"split_conditions":[1.9433828E-3,8.9594035E-4,-1.896371E-2,2.0825043E-2,4.9381405E-2],"split_indices":[67,223,0,0,0],"split_type":[0,0,0,0,0],"sum_hessian":[1.0381332E2,2.6009466E1,7.780385E1,2.0257437E0,2.3983723E1],"tree_param":{"num_deleted":"0","num_feature":"265","num_nodes":"5","size_leaf_vector":"1"}},{"base_weights":[4.1935623E-2,-1.8964428E-2,4.9336955E-2],"categories":[],"categories_nodes":[],"categories_segments":[],"categories_sizes":[],"default_left":[0,0,0],"id":13,"left_children":[1,-1,-1],"loss_changes":[1.2963557E2,0E0,0E0],"parents":[2147483647,0,0],"right_children":[2,-1,-1],"split_conditions":[7.04856E-3,-1.8964428E-2,4.9336955E-2],"split_indices":[73,0,0],"split_type":[0,0,0],"sum_hessian":[1.12381584E2,7.924325E1,3.3138336E1],"tree_param":{"num_deleted":"0","num_feature":"265","num_nodes":"3","size_leaf_vector":"1"}},{"base_weights":[1.0439513E-1,-6.397261E-1,4.9310535E-2,-1.8975694E-2,-5.231474E-3],"categories":[],"categories_nodes":[],"categories_segments":[],"categories_sizes":[],"default_left":[0,0,0,0,0],"id":14,"left_children":[1,3,-1,-1,-1],"loss_changes":[1.3017905E2,4.2697334E-1,0E0,0E0,0E0],"parents":[2147483647,0,0,1,1],"right_children":[2,4,-1,-1,-1],"split_conditions":[8.176306E-3,1.391336E-2,4.9310535E-2,-1.8975694E-2,-5.231474E-3],"split_indices":[16,6,0,0,0],"split_type":[0,0,0,0,0],"sum_hessian":[1.09518906E2,7.470698E1,3.4811928E1,7.2525475E1,2.1815033E0],"tree_param":{"num_deleted":"0","num_feature":"265","num_nodes":"5","size_leaf_vector":"1"}},{"base_weights":[-2.203605E-2,4.92135E-2,-6.4105684E-1,-5.1677604E-3,-1.8966649E-2],"categories":[],"categories_nodes":[],"categories_segments":[],"categories_sizes":[],"default_left":[0,0,0,0,0],"id":15,"left_children":[1,-1,3,-1,-1],"loss_changes":[1.2361412E2,0E0,4.310341E-1,0E0,0E0],"parents":[2147483647,0,0,2,2],"right_children":[2,-1,4,-1,-1],"split_conditions":[2.8637894E-3,4.92135E-2,9.865427E-4,-5.1677604E-3,-1.8966649E-2],"split_indices":[11,0,107,0,0],"split_type":[0,0,0,0,0],"sum_hessian":[1.1606251E2,3.0690847E1,8.5371666E1,2.1733842E0,8.319828E1],"tree_param":{"num_deleted":"0","num_feature":"265","num_nodes":"5","size_leaf_vector":"1"}},{"base_weights":[-1.0064688E-1,1.5573816E0,-1.8848E-2,4.7296304E-2,1.908112E-2],"categories":[],"categories_nodes":[],"categories_segments":[],"categories_sizes":[],"default_left":[0,0,0,0,0],"id":16,"left_children":[1,3,-1,-1,-1],"loss_changes":[9.9794174E1,1.5142975E0,0E0,0E0,0E0],"parents":[2147483647,0,0,1,1],"right_children":[2,4,-1,-1,-1],"split_conditions":[3.668974E-4,7.9958077E-4,-1.8848E-2,4.7296304E-2,1.908112E-2],"split_indices":[73,208,0,0,0],"split_type":[0,0,0,0,0],"sum_hessian":[1.09490326E2,2.711109E1,8.2379234E1,2.5013233E1,2.0978577E0],"tree_param":{"num_deleted":"0","num_feature":"265","num_nodes":"5","size_leaf_vector":"1"}},{"base_weights":[6.738115E-2,4.7040574E-2,-1.8847775E-2],"categories":[],"categories_nodes":[],"categories_segments":[],"categories_sizes":[],"default_left":[0,0,0],"id":17,"left_children":[1,-1,-1],"loss_changes":[1.2940584E2,0E0,0E0],"parents":[2147483647,0,0],"right_children":[2,-1,-1],"split_conditions":[1.551475E-4,4.7040574E-2,-1.8847775E-2],"split_indices":[28,0,0],"split_type":[0,0,0],"sum_hessian":[1.1616782E2,3.6617622E1,7.95502E1],"tree_param":{"num_deleted":"0","num_feature":"265","num_nodes":"3","size_leaf_vector":"1"}},{"base_weights":[9.5370695E-2,-6.2489235E-1,1.6010022E0,-1.8860519E-2,-1.8176632E-1,3.2543134E-2,4.7146164E-2,-1.7415332E-2,7.005756E-3],"categories":[],"categories_nodes":[],"categories_segments":[],"categories_sizes":[],"default_left":[0,0,0,0,0,0,0,0,0],"id":18,"left_children":[1,3,5,-1,7,-1,-1,-1,-1],"loss_changes":[1.315256E2,8.476906E-1,5.871582E-2,0E0,8.2222307E-1,0E0,0E0,0E0,0E0],"parents":[2147483647,0,0,1,1,2,2,4,4],"right_children":[2,4,6,-1,8,-1,-1,-1,-1],"split_conditions":[6.6081462E-3,4.4820393E-3,4.22E3,-1.8860519E-2,2.2891986E-3,3.2543134E-2,4.7146164E-2,-1.7415332E-2,7.005756E-3],"split_indices":[63,82,0,0,167,0,0,0,0],"split_type":[0,0,0,0,0,0,0,0,0],"sum_hessian":[1.20938614E2,8.186972E1,3.9068893E1,7.754919E1,4.320528E0,2.0722682E0,3.6996628E1,2.1486406E0,2.1718874E0],"tree_param":{"num_deleted":"0","num_feature":"265","num_nodes":"9","size_leaf_vector":"1"}},{"base_weights":[5.3724315E-2,4.7066126E-2,-6.36031E-1,-5.0407676E-3,-1.8852858E-2],"categories":[],"categories_nodes":[],"categories_segments":[],"categories_sizes":[],"default_left":[0,0,0,0,0],"id":19,"left_children":[1,-1,3,-1,-1],"loss_changes":[1.2086087E2,0E0,4.288292E-1,0E0,0E0],"parents":[2147483647,0,0,2,2],"right_children":[2,-1,4,-1,-1],"split_conditions":[3.9246534E-3,4.7066126E-2,3.5163827E-4,-5.0407676E-3,-1.8852858E-2],"split_indices":[11,0,104,0,0],"split_type":[0,0,0,0,0],"sum_hessian":[1.1155413E2,3.404533E1,7.75088E1,2.159467E0,7.534933E1],"tree_param":{"num_deleted":"0","num_feature":"265","num_nodes":"5","size_leaf_vector":"1"}},{"base_weights":[-9.803317E-2,-1.8746011E-2,1.4686263E0,1.524828E0,1.911319E-2,4.5284007E-2,3.0130925E-2],"categories":[],"categories_nodes":[],"categories_segments":[],"categories_sizes":[],"default_left":[0,0,0,0,0,0,0],"id":20,"left_children":[1,-1,3,5,-1,-1,-1],"loss_changes":[9.946629E1,0E0,1.1729965E0,1.4852142E-1,0E0,0E0,0E0],"parents":[2147483647,0,0,2,2,3,3],"right_children":[2,-1,4,6,-1,-1,-1],"split_conditions":[8.026633E-3,-1.8746011E-2,4.409554E-3,7.939485E-3,1.911319E-2,4.5284007E-2,3.0130925E-2],"split_indices":[70,0,191,47,0,0,0],"split_type":[0,0,0,0,0,0,0],"sum_hessian":[1.1570536E2,8.584152E1,2.986384E1,2.7773428E1,2.0904114E0,2.561732E1,2.1561096E0],"tree_param":{"num_deleted":"0","num_feature":"265","num_nodes":"7","size_leaf_vector":"1"}},{"base_weights":[3.6925633E-2,-1.8741911E-2,1.5288113E0,4.5042627E-2,3.1662747E-2],"categories":[],"categories_nodes":[],"categories_segments":[],"categories_sizes":[],"default_left":[0,0,0,0,0],"id":21,"left_children":[1,-1,3,-1,-1],"loss_changes":[1.1759995E2,0E0,1.6082764E-2,0E0,0E0],"parents":[2147483647,0,0,2,2],"right_children":[2,-1,4,-1,-1],"split_conditions":[6.9031594E-3,-1.8741911E-2,2.003544E-4,4.5042627E-2,3.1662747E-2],"split_indices":[73,0,6,0,0],"split_type":[0,0,0,0,0],"sum_hessian":[1.1525629E2,7.916724E1,3.6089054E1,3.3991867E1,2.0971859E0],"tree_param":{"num_deleted":"0","num_feature":"265","num_nodes":"5","size_leaf_vector":"1"}},{"base_weights":[3.0840578E-2,-6.072695E-1,4.498451E-2,6.902108E-3,-6.3216203E-1,-4.6590967E-3,-1.8750623E-2],"categories":[],"categories_nodes":[],"categories_segments":[],"categories_sizes":[],"default_left":[0,0,0,0,0,0,0],"id":22,"left_children":[1,3,-1,-1,5,-1,-1],"loss_changes":[1.0750406E2,1.673706E0,0E0,0E0,4.4213676E-1,0E0,0E0],"parents":[2147483647,0,0,1,1,4,4],"right_children":[2,4,-1,-1,6,-1,-1],"split_conditions":[7.779134E-3,6.844409E-4,4.498451E-2,6.902108E-3,5.161301E-1,-4.6590967E-3,-1.8750623E-2],"split_indices":[16,44,0,0,2,0,0],"split_type":[0,0,0,0,0,0,0],"sum_hessian":[1.1069661E2,7.799088E1,3.270572E1,2.1786623E0,7.5812225E1,2.1224809E0,7.368974E1],"tree_param":{"num_deleted":"0","num_feature":"265","num_nodes":"7","size_leaf_vector":"1"}},{"base_weights":[8.724939E-2,4.4960834E-2,-6.318184E-1,-4.739295E-3,-1.873596E-2],"categories":[],"categories_nodes":[],"categories_segments":[],"categories_sizes":[],"default_left":[0,0,0,0,0],"id":23,"left_children":[1,-1,3,-1,-1],"loss_changes":[1.19931816E2,0E0,4.364128E-1,0E0,0E0],"parents":[2147483647,0,0,2,2],"right_children":[2,-1,4,-1,-1],"split_conditions":[3.9246534E-3,4.4960834E-2,1.14572664E-4,-4.739295E-3,-1.873596E-2],"split_indices":[11,0,48,0,0],"split_type":[0,0,0,0,0],"sum_hessian":[1.1390345E2,3.7527233E1,7.637621E1,2.1275642E0,7.424865E1],"tree_param":{"num_deleted":"0","num_feature":"265","num_nodes":"5","size_leaf_vector":"1"}},{"base_weights":[-4.6781827E-2,-1.8624645E-2,1.4172403E0,4.3538835E-2,1.6847631E-2],"categories":[],"categories_nodes":[],"categories_segments":[],"categories_sizes":[],"default_left":[0,0,0,0,0],"id":24,"left_children":[1,-1,3,-1,-1],"loss_changes":[9.7653175E1,0E0,2.025299E0,0E0,0E0],"parents":[2147483647,0,0,2,2],"right_children":[2,-1,4,-1,-1],"split_conditions":[8.421636E-3,-1.8624645E-2,2.0840024E-3,4.3538835E-2,1.6847631E-2],"split_indices":[51,0,59,0,0],"split_type":[0,0,0,0,0],"sum_hessian":[1.11926186E2,7.969215E1,3.2234043E1,2.925734E1,2.9767032E0],"tree_param":{"num_deleted":"0","num_feature":"265","num_nodes":"5","size_leaf_vector":"1"}},{"base_weights":[7.0978194E-2,-1.861707E-2,4.3162774E-2],"categories":[],"categories_nodes":[],"categories_segments":[],"categories_sizes":[],"default_left":[0,0,0],"id":25,"left_children":[1,-1,-1],"loss_changes":[1.17075905E2,0E0,0E0],"parents":[2147483647,0,0],"right_children":[2,-1,-1],"split_conditions":[6.228962E-3,-1.861707E-2,4.3162774E-2],"split_indices":[102,0,0],"split_type":[0,0,0],"sum_hessian":[1.1598577E2,7.7220566E1,3.8765205E1],"tree_param":{"num_deleted":"0","num_feature":"265","num_nodes":"3","size_leaf_vector":"1"}},{"base_weights":[8.975638E-2,-6.287539E-1,4.310602E-2,-1.8655404E-2,-4.613657E-3],"categories":[],"categories_nodes":[],"categories_segments":[],"categories_sizes":[],"default_left":[0,0,0,0,0],"id":26,"left_children":[1,3,-1,-1,-1],"loss_changes":[1.13376396E2,4.3745804E-1,0E0,0E0,0E0],"parents":[2147483647,0,0,1,1],"right_children":[2,4,-1,-1,-1],"split_conditions":[8.176306E-3,6.1622E5,4.310602E-2,-1.8655404E-2,-4.613657E-3],"split_indices":[16,0,0,0,0],"split_type":[0,0,0,0,0],"sum_hessian":[1.1288755E2,7.454226E1,3.834529E1,7.242675E1,2.1155078E0],"tree_param":{"num_deleted":"0","num_feature":"265","num_nodes":"5","size_leaf_vector":"1"}},{"base_weights":[-1.7325936E-3,1.4682024E0,-6.299665E-1,4.3264486E-2,3.052291E-2,-1.8633738E-2,-5.3647496E-3],"categories":[],"categories_nodes":[],"categories_segments":[],"categories_sizes":[],"default_left":[0,0,0,0,0,0,0],"id":27,"left_children":[1,3,5,-1,-1,-1,-1],"loss_changes":[1.1139229E2,1.2496948E-2,3.9390945E-1,0E0,0E0,0E0,0E0],"parents":[2147483647,0,0,1,1,2,2],"right_children":[2,4,6,-1,-1,-1,-1],"split_conditions":[5.7485665E-4,4.3177183E-4,7.817591E-3,4.3264486E-2,3.052291E-2,-1.8633738E-2,-5.3647496E-3],"split_indices":[95,95,132,0,0,0,0],"split_type":[0,0,0,0,0,0,0],"sum_hessian":[1.2028342E2,3.5940773E1,8.434265E1,3.380883E1,2.1319401E0,8.217358E1,2.169073E0],"tree_param":{"num_deleted":"0","num_feature":"265","num_nodes":"7","size_leaf_vector":"1"}},{"base_weights":[-1.1937071E-1,-1.8513514E-2,1.3839518E0,1.7499223E-2,4.1889474E-2],"categories":[],"categories_nodes":[],"categories_segments":[],"categories_sizes":[],"default_left":[0,0,0,0,0],"id":28,"left_children":[1,-1,3,-1,-1],"loss_changes":[8.939079E1,0E0,1.1509209E0,0E0,0E0],"parents":[2147483647,0,0,2,2],"right_children":[2,-1,4,-1,-1],"split_conditions":[6.7629437E-3,-1.8513514E-2,8.798705E-4,1.7499223E-2,4.1889474E-2],"split_indices":[159,0,68,0,0],"split_type":[0,0,0,0,0],"sum_hessian":[1.1449869E2,8.524936E1,2.924933E1,2.1516416E0,2.7097689E1],"tree_param":{"num_deleted":"0","num_feature":"265","num_nodes":"5","size_leaf_vector":"1"}},{"base_weights":[-1.1882909E-2,-1.8516334E-2,1.4135174E0,4.1670445E-2,2.947078E-2],"categories":[],"categories_nodes":[],"categories_segments":[],"categories_sizes":[],"default_left":[0,0,0,0,0],"id":29,"left_children":[1,-1,3,-1,-1],"loss_changes":[1.03486946E2,0E0,1.0612488E-2,0E0,0E0],"parents":[2147483647,0,0,2,2],"right_children":[2,-1,4,-1,-1],"split_conditions":[6.489777E-3,-1.8516334E-2,5.4839477E-3,4.1670445E-2,2.947078E-2],"split_indices":[128,0,17,0,0],"split_type":[0,0,0,0,0],"sum_hessian":[1.1577059E2,8.054291E1,3.5227688E1,3.306502E1,2.1626673E0],"tree_param":{"num_deleted":"0","num_feature":"265","num_nodes":"5","size_leaf_vector":"1"}},{"base_weights":[1.455498E-1,-6.110821E-1,4.149645E-2,-1.8532967E-2,-1.0357813E-4],"categories":[],"categories_nodes":[],"categories_segments":[],"categories_sizes":[],"default_left":[0,0,0,0,0],"id":30,"left_children":[1,3,-1,-1,-1],"loss_changes":[1.1447665E2,1.1946449E0,0E0,0E0,0E0],"parents":[2147483647,0,0,1,1],"right_children":[2,4,-1,-1,-1],"split_conditions":[7.779134E-3,7.892847E-3,4.149645E-2,-1.8532967E-2,-1.0357813E-4],"split_indices":[16,197,0,0,0],"split_type":[0,0,0,0,0],"sum_hessian":[1.1764481E2,7.404165E1,4.360316E1,7.0907875E1,3.1337736E0],"tree_param":{"num_deleted":"0","num_feature":"265","num_nodes":"5","size_leaf_vector":"1"}},{"base_weights":[-6.344205E-2,-1.8525215E-2,1.4000448E0,4.1406807E-2,2.8459968E-2],"categories":[],"categories_nodes":[],"categories_segments":[],"categories_sizes":[],"default_left":[0,0,0,0,0],"id":31,"left_children":[1,-1,3,-1,-1],"loss_changes":[9.649469E1,0E0,7.050705E-2,0E0,0E0],"parents":[2147483647,0,0,2,2],"right_children":[2,-1,4,-1,-1],"split_conditions":[6.375345E-3,-1.8525215E-2,6.030996E-3,4.1406807E-2,2.8459968E-2],"split_indices":[189,0,54,0,0],"split_type":[0,0,0,0,0],"sum_hessian":[1.1451451E2,8.23285E1,3.218601E1,2.998121E1,2.2047987E0],"tree_param":{"num_deleted":"0","num_feature":"265","num_nodes":"5","size_leaf_vector":"1"}},{"base_weights":[-6.698917E-2,1.3111535E0,-1.8412698E-2,4.5898203E-3,4.0363155E-2],"categories":[],"categories_nodes":[],"categories_segments":[],"categories_sizes":[],"default_left":[0,0,0,0,0],"id":32,"left_children":[1,3,-1,-1,-1],"loss_changes":[9.1307274E1,3.0015717E0,0E0,0E0,0E0],"parents":[2147483647,0,0,1,1],"right_children":[2,4,-1,-1,-1],"split_conditions":[1.5246193E-4,8.4965443E-4,-1.8412698E-2,4.5898203E-3,4.0363155E-2],"split_indices":[73,223,0,0,0],"split_type":[0,0,0,0,0],"sum_hessian":[1.16581024E2,3.389381E1,8.268722E1,2.181975E0,3.1711836E1],"tree_param":{"num_deleted":"0","num_feature":"265","num_nodes":"5","size_leaf_vector":"1"}},{"base_weights":[8.372797E-2,1.3411717E0,-1.8405806E-2,1.728933E-2,4.004927E-2],"categories":[],"categories_nodes":[],"categories_segments":[],"categories_sizes":[],"default_left":[0,0,0,0,0],"id":33,"left_children":[1,3,-1,-1,-1],"loss_changes":[1.05426445E2,1.0080872E0,0E0,0E0,0E0],"parents":[2147483647,0,0,1,1],"right_children":[2,4,-1,-1,-1],"split_conditions":[1.1788243E-3,6.2940554E-3,-1.8405806E-2,1.728933E-2,4.004927E-2],"split_indices":[56,27,0,0,0],"split_type":[0,0,0,0,0],"sum_hessian":[1.1657524E2,4.228557E1,7.428967E1,2.147112E0,4.013846E1],"tree_param":{"num_deleted":"0","num_feature":"265","num_nodes":"5","size_leaf_vector":"1"}},{"base_weights":[4.939757E-2,-6.0763884E-1,3.9858907E-2,8.015526E-3,-1.8424796E-2],"categories":[],"categories_nodes":[],"categories_segments":[],"categories_sizes":[],"default_left":[0,0,0,0,0],"id":34,"left_children":[1,3,-1,-1,-1],"loss_changes":[9.7241196E1,1.7754498E0,0E0,0E0,0E0],"parents":[2147483647,0,0,1,1],"right_children":[2,4,-1,-1,-1],"split_conditions":[7.779134E-3,1.3850411E-4,3.9858907E-2,8.015526E-3,-1.8424796E-2],"split_indices":[16,151,0,0,0],"split_type":[0,0,0,0,0],"sum_hessian":[1.11587555E2,7.4601845E1,3.6985714E1,2.103154E0,7.249869E1],"tree_param":{"num_deleted":"0","num_feature":"265","num_nodes":"5","size_leaf_vector":"1"}},{"base_weights":[-7.7299714E-2,-6.22752E-1,4.0019184E-2,-1.8422721E-2,-5.01628E-3],"categories":[],"categories_nodes":[],"categories_segments":[],"categories_sizes":[],"default_left":[0,0,0,0,0],"id":35,"left_children":[1,3,-1,-1,-1],"loss_changes":[9.172529E1,3.962288E-1,0E0,0E0,0E0],"parents":[2147483647,0,0,1,1],"right_children":[2,4,-1,-1,-1],"split_conditions":[6.4551574E-3,6.1419006E-3,4.0019184E-2,-1.8422721E-2,-5.01628E-3],"split_indices":[113,104,0,0,0],"split_type":[0,0,0,0,0],"sum_hessian":[1.1527221E2,8.390904E1,3.1363163E1,8.1785805E1,2.1232357E0],"tree_param":{"num_deleted":"0","num_feature":"265","num_nodes":"5","size_leaf_vector":"1"}},{"base_weights":[-4.7903106E-2,1.2550083E0,-1.8302895E-2,1.4284119E-2,1.3067498E0,3.880847E-2,2.528942E-2],"categories":[],"categories_nodes":[],"categories_segments":[],"categories_sizes":[],"default_left":[0,0,0,0,0,0,0],"id":36,"left_children":[1,3,-1,-1,5,-1,-1],"loss_changes":[8.40212E1,1.2221985E0,0E0,0E0,1.7526245E-1,0E0,0E0],"parents":[2147483647,0,0,1,1,4,4],"right_children":[2,4,-1,-1,6,-1,-1],"split_conditions":[1.674118E-3,1.1635522E-4,-1.8302895E-2,1.4284119E-2,3.8430975E-3,3.880847E-2,2.528942E-2],"split_indices":[67,243,0,0,225,0,0],"split_type":[0,0,0,0,0,0,0],"sum_hessian":[1.1047237E2,3.4038902E1,7.6433464E1,2.288541E0,3.175036E1,2.9436398E1,2.3139627E0],"tree_param":{"num_deleted":"0","num_feature":"265","num_nodes":"7","size_leaf_vector":"1"}},{"base_weights":[7.775978E-2,-1.830112E-2,1.316385E0,3.8737092E-2,2.7422093E-2],"categories":[],"categories_nodes":[],"categories_segments":[],"categories_sizes":[],"default_left":[0,0,0,0,0],"id":37,"left_children":[1,-1,3,-1,-1],"loss_changes":[1.0049579E2,0E0,1.5945435E-2,0E0,0E0],"parents":[2147483647,0,0,2,2],"right_children":[2,-1,4,-1,-1],"split_conditions":[5.8453297E-3,-1.830112E-2,6.2859575E-3,3.8737092E-2,2.7422093E-2],"split_indices":[128,0,42,0,0],"split_type":[0,0,0,0,0],"sum_hessian":[1.14330154E2,7.281585E1,4.15143E1,3.9292683E1,2.2216187E0],"tree_param":{"num_deleted":"0","num_feature":"265","num_nodes":"5","size_leaf_vector":"1"}},{"base_weights":[5.0398573E-2,1.312022E0,-6.0534436E-1,2.7358387E-2,3.8637985E-2,6.783447E-3,-1.8328467E-2],"categories":[],"categories_nodes":[],"categories_segments":[],"categories_sizes":[],"default_left":[0,0,0,0,0,0,0],"id":38,"left_children":[1,3,5,-1,-1,-1,-1],"loss_changes":[9.526527E1,1.5319824E-2,1.6399937E0,0E0,0E0,0E0,0E0],"parents":[2147483647,0,0,1,1,2,2],"right_children":[2,4,6,-1,-1,-1,-1],"split_conditions":[3.5629916E-4,4.7611264E-3,8.352167E-6,2.7358387E-2,3.8637985E-2,6.783447E-3,-1.8328467E-2],"split_indices":[156,133,185,0,0,0,0],"split_type":[0,0,0,0,0,0,0],"sum_hessian":[1.14801285E2,3.9207417E1,7.559387E1,2.2258196E0,3.6981598E1,2.163795E0,7.343008E1],"tree_param":{"num_deleted":"0","num_feature":"265","num_nodes":"7","size_leaf_vector":"1"}},{"base_weights":[-1.1631075E-2,-1.8306842E-2,1.2858019E0,3.8586743E-2,1.695355E-2],"categories":[],"categories_nodes":[],"categories_segments":[],"categories_sizes":[],"default_left":[0,0,0,0,0],"id":39,"left_children":[1,-1,3,-1,-1],"loss_changes":[8.8451126E1,0E0,8.955841E-1,0E0,0E0],"parents":[2147483647,0,0,2,2],"right_children":[2,-1,4,-1,-1],"split_conditions":[6.4515457E-3,-1.8306842E-2,4.5959587E-4,3.8586743E-2,1.695355E-2],"split_indices":[189,0,220,0,0],"split_type":[0,0,0,0,0],"sum_hessian":[1.0991506E2,7.45056E1,3.5409466E1,3.3253242E1,2.1562262E0],"tree_param":{"num_deleted":"0","num_feature":"265","num_nodes":"5","size_leaf_vector":"1"}},{"base_weights":[-1.4948636E-1,-1.8209709E-2,1.242058E0,3.7693925E-2,1.5984533E-2],"categories":[],"categories_nodes":[],"categories_segments":[],"categories_sizes":[],"default_left":[0,0,0,0,0],"id":40,"left_children":[1,-1,3,-1,-1],"loss_changes":[7.248105E1,0E0,9.18705E-1,0E0,0E0],"parents":[2147483647,0,0,2,2],"right_children":[2,-1,4,-1,-1],"split_conditions":[8.421636E-3,-1.8209709E-2,1.2680446E-3,3.7693925E-2,1.5984533E-2],"split_indices":[51,0,138,0,0],"split_type":[0,0,0,0,0],"sum_hessian":[1.0880001E2,8.1097404E1,2.7702602E1,2.5508839E1,2.1937633E0],"tree_param":{"num_deleted":"0","num_feature":"265","num_nodes":"5","size_leaf_vector":"1"}},{"base_weights":[8.429826E-2,1.2629172E0,-1.8197391E-2,2.4448479E-2,3.7341148E-2],"categories":[],"categories_nodes":[],"categories_segments":[],"categories_sizes":[],"default_left":[0,0,0,0,0],"id":41,"left_children":[1,3,-1,-1,-1],"loss_changes":[8.905128E1,1.6179276E-1,0E0,0E0,0E0],"parents":[2147483647,0,0,1,1],"right_children":[2,4,-1,-1,-1],"split_conditions":[3.116907E-4,2.5887783E-5,-1.8197391E-2,2.4448479E-2,3.7341148E-2],"split_indices":[180,97,0,0,0],"split_type":[0,0,0,0,0],"sum_hessian":[1.0599842E2,3.9819153E1,6.617927E1,2.3359501E0,3.7483204E1],"tree_param":{"num_deleted":"0","num_feature":"265","num_nodes":"5","size_leaf_vector":"1"}},{"base_weights":[1.16562486E-1,-6.130867E-1,3.7219483E-2,-1.8234374E-2,-3.8699687E-3],"categories":[],"categories_nodes":[],"categories_segments":[],"categories_sizes":[],"default_left":[0,0,0,0,0],"id":42,"left_children":[1,3,-1,-1,-1],"loss_changes":[9.3631744E1,4.4522476E-1,0E0,0E0,0E0],"parents":[2147483647,0,0,1,1],"right_children":[2,4,-1,-1,-1],"split_conditions":[8.645061E-3,6.1622E5,3.7219483E-2,-1.8234374E-2,-3.8699687E-3],"split_indices":[63,0,0,0,0],"split_type":[0,0,0,0,0],"sum_hessian":[1.09884796E2,6.759419E1,4.2290604E1,6.555884E1,2.0353558E0],"tree_param":{"num_deleted":"0","num_feature":"265","num_nodes":"5","size_leaf_vector":"1"}},{"base_weights":[2.5317403E-2,-1.8215422E-2,3.724574E-2],"categories":[],"categories_nodes":[],"categories_segments":[],"categories_sizes":[],"default_left":[0,0,0],"id":43,"left_children":[1,-1,-1],"loss_changes":[8.921858E1,0E0,0E0],"parents":[2147483647,0,0],"right_children":[2,-1,-1],"split_conditions":[6.4551574E-3,-1.8215422E-2,3.724574E-2],"split_indices":[113,0,0],"split_type":[0,0,0],"sum_hessian":[1.0854783E2,7.150949E1,3.7038334E1],"tree_param":{"num_deleted":"0","num_feature":"265","num_nodes":"3","size_leaf_vector":"1"}},{"base_weights":[-1.2439598E-1,-6.1098444E-1,1.1955978E0,-1.8130759E-2,-4.5367116E-3,1.49628585E-2,3.64492E-2],"categories":[],"categories_nodes":[],"categories_segments":[],"categories_sizes":[],"default_left":[0,0,0,0,0,0,0],"id":44,"left_children":[1,3,5,-1,-1,-1,-1],"loss_changes":[6.2711807E1,3.9398766E-1,9.198761E-1,0E0,0E0,0E0,0E0],"parents":[2147483647,0,0,1,1,2,2],"right_children":[2,4,6,-1,-1,-1,-1],"split_conditions":[8.15979E-3,6.8665873E-3,1.0219432E-3,-1.8130759E-2,-4.5367116E-3,1.49628585E-2,3.64492E-2],"split_indices":[24,230,113,0,0,0,0],"split_type":[0,0,0,0,0,0,0],"sum_hessian":[9.727247E1,7.114677E1,2.6125702E1,6.910152E1,2.0452456E0,2.2200265E0,2.3905676E1],"tree_param":{"num_deleted":"0","num_feature":"265","num_nodes":"7","size_leaf_vector":"1"}},{"base_weights":[1.5568373E-2,-1.8116118E-2,1.220996E0,3.5980817E-2,2.5650319E-2],"categories":[],"categories_nodes":[],"categories_segments":[],"categories_sizes":[],"default_left":[0,0,0,0,0],"id":45,"left_children":[1,-1,3,-1,-1],"loss_changes":[8.342841E1,0E0,6.0806274E-3,0E0,0E0],"parents":[2147483647,0,0,2,2],"right_children":[2,-1,4,-1,-1],"split_conditions":[6.692297E-3,-1.8116118E-2,5.809259E-4,3.5980817E-2,2.5650319E-2],"split_indices":[128,0,19,0,0],"split_type":[0,0,0,0,0],"sum_hessian":[1.07965004E2,7.061265E1,3.7352356E1,3.5085384E1,2.2669716E0],"tree_param":{"num_deleted":"0","num_feature":"265","num_nodes":"5","size_leaf_vector":"1"}},{"base_weights":[5.264003E-2,1.2280349E0,-6.111584E-1,2.564965E-2,3.6149602E-2,-4.5991912E-3,-1.8129406E-2],"categories":[],"categories_nodes":[],"categories_segments":[],"categories_sizes":[],"default_left":[0,0,0,0,0,0,0],"id":46,"left_children":[1,3,5,-1,-1,-1,-1],"loss_changes":[8.923909E1,1.4305115E-2,3.9497757E-1,0E0,0E0,0E0,0E0],"parents":[2147483647,0,0,1,1,2,2],"right_children":[2,4,6,-1,-1,-1,-1],"split_conditions":[2.7715997E-3,9.371988E-6,3.3086867E-3,2.564965E-2,3.6149602E-2,-4.5991912E-3,-1.8129406E-2],"split_indices":[101,75,101,0,0,0,0],"split_type":[0,0,0,0,0,0,0],"sum_hessian":[1.14025696E2,4.110553E1,7.2920166E1,2.2674773E0,3.883805E1,2.0702202E0,7.0849945E1],"tree_param":{"num_deleted":"0","num_feature":"265","num_nodes":"7","size_leaf_vector":"1"}},{"base_weights":[2.7194424E-2,-1.8108798E-2,3.5925165E-2],"categories":[],"categories_nodes":[],"categories_segments":[],"categories_sizes":[],"default_left":[0,0,0],"id":47,"left_children":[1,-1,-1],"loss_changes":[8.905237E1,0E0,0E0],"parents":[2147483647,0,0],"right_children":[2,-1,-1],"split_conditions":[6.4551574E-3,-1.8108798E-2,3.5925165E-2],"split_indices":[113,0,0],"split_type":[0,0,0],"sum_hessian":[1.12910805E2,7.346868E1,3.9442127E1],"tree_param":{"num_deleted":"0","num_feature":"265","num_nodes":"3","size_leaf_vector":"1"}},{"base_weights":[-1.0681289E-1,1.1902783E0,-1.8000824E-2,2.2187922E-2,3.5518438E-2],"categories":[],"categories_nodes":[],"categories_segments":[],"categories_sizes":[],"default_left":[0,0,0,0,0],"id":48,"left_children":[1,3,-1,-1,-1],"loss_changes":[7.058355E1,2.2763824E-1,0E0,0E0,0E0],"parents":[2147483647,0,0,1,1],"right_children":[2,4,-1,-1,-1],"split_conditions":[1.9433828E-3,6.994424E-3,-1.8000824E-2,2.2187922E-2,3.5518438E-2],"split_indices":[67,34,0,0,0],"split_type":[0,0,0,0,0],"sum_hessian":[1.0579839E2,2.9896915E1,7.5901474E1,2.4040418E0,2.7492872E1],"tree_param":{"num_deleted":"0","num_feature":"265","num_nodes":"5","size_leaf_vector":"1"}},{"base_weights":[8.5772485E-2,3.467582E-2,-1.8011607E-2],"categories":[],"categories_nodes":[],"categories_segments":[],"categories_sizes":[],"default_left":[0,0,0],"id":49,"left_children":[1,-1,-1],"loss_changes":[9.147112E1,0E0,0E0],"parents":[2147483647,0,0],"right_children":[2,-1,-1],"split_conditions":[1.1788243E-3,3.467582E-2,-1.8011607E-2],"split_indices":[56,0,0],"split_type":[0,0,0],"sum_hessian":[1.16720726E2,4.5382217E1,7.133851E1],"tree_param":{"num_deleted":"0","num_feature":"265","num_nodes":"3","size_leaf_vector":"1"}},{"base_weights":[4.5957483E-2,-6.069882E-1,3.490004E-2,-1.8038131E-2,-3.5798764E-3],"categories":[],"categories_nodes":[],"categories_segments":[],"categories_sizes":[],"default_left":[0,0,0,0,0],"id":50,"left_children":[1,3,-1,-1,-1],"loss_changes":[8.344961E1,4.4832802E-1,0E0,0E0,0E0],"parents":[2147483647,0,0,1,1],"right_children":[2,4,-1,-1,-1],"split_conditions":[8.176306E-3,1.2729157E-2,3.490004E-2,-1.8038131E-2,-3.5798764E-3],"split_indices":[16,49,0,0,0],"split_type":[0,0,0,0,0],"sum_hessian":[1.1030633E2,7.05156E1,3.979072E1,6.85056E1,2.0100052E0],"tree_param":{"num_deleted":"0","num_feature":"265","num_nodes":"5","size_leaf_vector":"1"}},{"base_weights":[-4.1028947E-2,-1.8018603E-2,1.178172E0,2.3291623E-2,3.489619E-2],"categories":[],"categories_nodes":[],"categories_segments":[],"categories_sizes":[],"default_left":[0,0,0,0,0],"id":51,"left_children":[1,-1,3,-1,-1],"loss_changes":[7.679634E1,0E0,1.1110306E-1,0E0,0E0],"parents":[2147483647,0,0,2,2],"right_children":[2,-1,4,-1,-1],"split_conditions":[6.4551574E-3,-1.8018603E-2,4.5319656E-3,2.3291623E-2,3.489619E-2],"split_indices":[113,0,228,0,0],"split_type":[0,0,0,0,0],"sum_hessian":[1.084425E2,7.3589035E1,3.485347E1,2.3581173E0,3.249535E1],"tree_param":{"num_deleted":"0","num_feature":"265","num_nodes":"5","size_leaf_vector":"1"}},{"base_weights":[-1.3729924E-1,1.1506656E0,-1.7911846E-2,3.4414224E-2,2.1684444E-2],"categories":[],"categories_nodes":[],"categories_segments":[],"categories_sizes":[],"default_left":[0,0,0,0,0],"id":52,"left_children":[1,3,-1,-1,-1],"loss_changes":[6.2366352E1,1.989479E-1,0E0,0E0,0E0],"parents":[2147483647,0,0,1,1],"right_children":[2,4,-1,-1,-1],"split_conditions":[3.668974E-4,3.83881E-4,-1.7911846E-2,3.4414224E-2,2.1684444E-2],"split_indices":[73,129,0,0,0],"split_type":[0,0,0,0,0],"sum_hessian":[1.0071264E2,2.7232094E1,7.3480545E1,2.4814548E1,2.4175465E0],"tree_param":{"num_deleted":"0","num_feature":"265","num_nodes":"5","size_leaf_vector":"1"}},{"base_weights":[-1.6483776E-2,-1.7909052E-2,1.1334704E0,1.4034641E-2,3.4032796E-2],"categories":[],"categories_nodes":[],"categories_segments":[],"categories_sizes":[],"default_left":[0,0,0,0,0],"id":53,"left_children":[1,-1,3,-1,-1],"loss_changes":[7.757733E1,0E0,8.285141E-1,0E0,0E0],"parents":[2147483647,0,0,2,2],"right_children":[2,-1,4,-1,-1],"split_conditions":[6.489777E-3,-1.7909052E-2,2.4215814E-4,1.4034641E-2,3.4032796E-2],"split_indices":[128,0,149,0,0],"split_type":[0,0,0,0,0],"sum_hessian":[1.1213401E2,7.375551E1,3.83785E1,2.2432442E0,3.6135258E1],"tree_param":{"num_deleted":"0","num_feature":"265","num_nodes":"5","size_leaf_vector":"1"}},{"base_weights":[3.929503E-2,-5.8990467E-1,3.379456E-2,5.2732653E-3,-1.7937215E-2],"categories":[],"categories_nodes":[],"categories_segments":[],"categories_sizes":[],"default_left":[0,0,0,0,0],"id":54,"left_children":[1,3,-1,-1,-1],"loss_changes":[7.843999E1,1.5223923E0,0E0,0E0,0E0],"parents":[2147483647,0,0,1,1],"right_children":[2,4,-1,-1,-1],"split_conditions":[7.779134E-3,1.1750104E-4,3.379456E-2,5.2732653E-3,-1.7937215E-2],"split_indices":[16,151,0,0,0],"split_type":[0,0,0,0,0],"sum_hessian":[1.1060236E2,7.094695E1,3.965541E1,2.381003E0,6.856595E1],"tree_param":{"num_deleted":"0","num_feature":"265","num_nodes":"5","size_leaf_vector":"1"}},{"base_weights":[5.8704725E-4,-1.792898E-2,3.38894E-2],"categories":[],"categories_nodes":[],"categories_segments":[],"categories_sizes":[],"default_left":[0,0,0],"id":55,"left_children":[1,-1,-1],"loss_changes":[7.861133E1,0E0,0E0],"parents":[2147483647,0,0],"right_children":[2,-1,-1],"split_conditions":[6.4551574E-3,-1.792898E-2,3.38894E-2],"split_indices":[113,0,0],"split_type":[0,0,0],"sum_hessian":[1.0886223E2,7.1208855E1,3.7653374E1],"tree_param":{"num_deleted":"0","num_feature":"265","num_nodes":"3","size_leaf_vector":"1"}},{"base_weights":[-9.123327E-2,-1.783733E-2,1.0929137E0,1.7499395E-2,3.3322316E-2],"categories":[],"categories_nodes":[],"categories_segments":[],"categories_sizes":[],"default_left":[0,0,0,0,0],"id":56,"left_children":[1,-1,3,-1,-1],"loss_changes":[6.469618E1,0E0,7.065544E-1,0E0,0E0],"parents":[2147483647,0,0,2,2],"right_children":[2,-1,4,-1,-1],"split_conditions":[8.026633E-3,-1.783733E-2,1.1750104E-4,1.7499395E-2,3.3322316E-2],"split_indices":[70,0,151,0,0],"split_type":[0,0,0,0,0],"sum_hessian":[1.04197845E2,7.235883E1,3.1839006E1,3.368967E0,2.847004E1],"tree_param":{"num_deleted":"0","num_feature":"265","num_nodes":"5","size_leaf_vector":"1"}},{"base_weights":[8.1371106E-2,-1.7840166E-2,1.1169215E0,2.3504503E-2,3.2832652E-2],"categories":[],"categories_nodes":[],"categories_segments":[],"categories_sizes":[],"default_left":[0,0,0,0,0],"id":57,"left_children":[1,-1,3,-1,-1],"loss_changes":[8.219012E1,0E0,3.4828186E-3,0E0,0E0],"parents":[2147483647,0,0,2,2],"right_children":[2,-1,4,-1,-1],"split_conditions":[7.04856E-3,-1.7840166E-2,9.816451E-3,2.3504503E-2,3.2832652E-2],"split_indices":[73,0,9,0,0],"split_type":[0,0,0,0,0],"sum_hessian":[1.1380976E2,6.8130104E1,4.5679657E1,2.3064818E0,4.3373177E1],"tree_param":{"num_deleted":"0","num_feature":"265","num_nodes":"5","size_leaf_vector":"1"}},{"base_weights":[9.399964E-2,3.2967124E-2,-5.844928E-1,-1.7839808E-2,6.725816E-3],"categories":[],"categories_nodes":[],"categories_segments":[],"categories_sizes":[],"default_left":[0,0,0,0,0],"id":58,"left_children":[1,-1,3,-1,-1],"loss_changes":[7.420905E1,0E0,1.5538425E0,0E0,0E0],"parents":[2147483647,0,0,2,2],"right_children":[2,-1,4,-1,-1],"split_conditions":[3.5629916E-4,3.2967124E-2,3.6067734E-3,-1.7839808E-2,6.725816E-3],"split_indices":[156,0,227,0,0],"split_type":[0,0,0,0,0],"sum_hessian":[1.0477957E2,4.1318367E1,6.3461205E1,6.130872E1,2.152488E0],"tree_param":{"num_deleted":"0","num_feature":"265","num_nodes":"5","size_leaf_vector":"1"}},{"base_weights":[-4.9720467E-3,-1.7830256E-2,3.2780632E-2],"categories":[],"categories_nodes":[],"categories_segments":[],"categories_sizes":[],"default_left":[0,0,0],"id":59,"left_children":[1,-1,-1],"loss_changes":[7.6229225E1,0E0,0E0],"parents":[2147483647,0,0],"right_children":[2,-1,-1],"split_conditions":[6.4551574E-3,-1.7830256E-2,3.2780632E-2],"split_indices":[113,0,0],"split_type":[0,0,0],"sum_hessian":[1.1021667E2,7.175951E1,3.845716E1],"tree_param":{"num_deleted":"0","num_feature":"265","num_nodes":"3","size_leaf_vector":"1"}},{"base_weights":[-1.6421667E-1,1.0541642E0,-1.7738793E-2,3.2523185E-2,1.0045825E-2],"categories":[],"categories_nodes":[],"categories_segments":[],"categories_sizes":[],"default_left":[0,0,0,0,0],"id":60,"left_children":[1,3,-1,-1,-1],"loss_changes":[5.6253242E1,1.1953049E0,0E0,0E0,0E0],"parents":[2147483647,0,0,1,1],"right_children":[2,4,-1,-1,-1],"split_conditions":[1.5246193E-4,6.485E5,-1.7738793E-2,3.2523185E-2,1.0045825E-2],"split_indices":[73,0,0,0,0],"split_type":[0,0,0,0,0],"sum_hessian":[1.0310614E2,2.7567617E1,7.553852E1,2.5147047E1,2.420571E0],"tree_param":{"num_deleted":"0","num_feature":"265","num_nodes":"5","size_leaf_vector":"1"}},{"base_weights":[-9.198451E-3,-1.774897E-2,1.0876298E0,3.207387E-2,2.2778569E-2],"categories":[],"categories_nodes":[],"categories_segments":[],"categories_sizes":[],"default_left":[0,0,0,0,0],"id":61,"left_children":[1,-1,3,-1,-1],"loss_changes":[6.918753E1,0E0,1.1798859E-2,0E0,0E0],"parents":[2147483647,0,0,2,2],"right_children":[2,-1,4,-1,-1],"split_conditions":[6.9031594E-3,-1.774897E-2,9.626959E-3,3.207387E-2,2.2778569E-2],"split_indices":[73,0,86,0,0],"split_type":[0,0,0,0,0],"sum_hessian":[1.0451866E2,6.755488E1,3.6963787E1,3.4643654E1,2.3201349E0],"tree_param":{"num_deleted":"0","num_feature":"265","num_nodes":"5","size_leaf_vector":"1"}},{"base_weights":[3.9123464E-2,-1.7777432E-2,3.1922605E-2],"categories":[],"categories_nodes":[],"categories_segments":[],"categories_sizes":[],"default_left":[0,0,0],"id":62,"left_children":[1,-1,-1],"loss_changes":[7.3920006E1,0E0,0E0],"parents":[2147483647,0,0],"right_children":[2,-1,-1],"split_conditions":[8.809961E-3,-1.7777432E-2,3.1922605E-2],"split_indices":[8,0,0],"split_type":[0,0,0],"sum_hessian":[1.06861305E2,6.623312E1,4.0628178E1],"tree_param":{"num_deleted":"0","num_feature":"265","num_nodes":"3","size_leaf_vector":"1"}},{"base_weights":[3.309301E-2,3.1863935E-2,-5.966912E-1,-3.9208066E-3,-1.7742453E-2],"categories":[],"categories_nodes":[],"categories_segments":[],"categories_sizes":[],"default_left":[0,0,0,0,0],"id":63,"left_children":[1,-1,3,-1,-1],"loss_changes":[7.082165E1,0E0,4.0262604E-1,0E0,0E0],"parents":[2147483647,0,0,2,2],"right_children":[2,-1,4,-1,-1],"split_conditions":[2.4534801E-3,3.1863935E-2,1.4606543E-3,-3.9208066E-3,-1.7742453E-2],"split_indices":[11,0,37,0,0],"split_type":[0,0,0,0,0],"sum_hessian":[1.0540171E2,3.9163055E1,6.6238655E1,2.000761E0,6.423789E1],"tree_param":{"num_deleted":"0","num_feature":"265","num_nodes":"5","size_leaf_vector":"1"}},{"base_weights":[-5.363242E-2,-5.961129E-1,1.0372757E0,-1.7677313E-2,-4.9324953E-3,1.08813355E-2,3.1489145E-2],"categories":[],"categories_nodes":[],"categories_segments":[],"categories_sizes":[],"default_left":[0,0,0,0,0,0,0],"id":64,"left_children":[1,3,5,-1,-1,-1,-1],"loss_changes":[6.2039917E1,3.377533E-1,9.830589E-1,0E0,0E0,0E0,0E0],"parents":[2147483647,0,0,1,1,2,2],"right_children":[2,4,6,-1,-1,-1,-1],"split_conditions":[7.5546075E-3,6.519037E-3,1.2131957E-3,-1.7677313E-2,-4.9324953E-3,1.08813355E-2,3.1489145E-2],"split_indices":[22,62,113,0,0,0,0],"split_type":[0,0,0,0,0,0,0],"sum_hessian":[1.04483E2,6.984091E1,3.464209E1,6.7809166E1,2.0317428E0,2.3775585E0,3.226453E1],"tree_param":{"num_deleted":"0","num_feature":"265","num_nodes":"7","size_leaf_vector":"1"}},{"base_weights":[5.80037E-2,-1.7653687E-2,3.138947E-2],"categories":[],"categories_nodes":[],"categories_segments":[],"categories_sizes":[],"default_left":[0,0,0],"id":65,"left_children":[1,-1,-1],"loss_changes":[7.479435E1,0E0,0E0],"parents":[2147483647,0,0],"right_children":[2,-1,-1],"split_conditions":[6.8562604E-3,-1.7653687E-2,3.138947E-2],"split_indices":[153,0,0],"split_type":[0,0,0],"sum_hessian":[1.0961173E2,6.6425476E1,4.3186256E1],"tree_param":{"num_deleted":"0","num_feature":"265","num_nodes":"3","size_leaf_vector":"1"}},{"base_weights":[-7.646788E-3,3.125214E-2,-5.8112305E-1,-1.7670296E-2,6.3622994E-3],"categories":[],"categories_nodes":[],"categories_segments":[],"categories_sizes":[],"default_left":[0,0,0,0,0],"id":66,"left_children":[1,-1,3,-1,-1],"loss_changes":[6.441544E1,0E0,1.4872837E0,0E0,0E0],"parents":[2147483647,0,0,2,2],"right_children":[2,-1,4,-1,-1],"split_conditions":[3.5629916E-4,3.125214E-2,3.5263218E-3,-1.7670296E-2,6.3622994E-3],"split_indices":[156,0,227,0,0],"split_type":[0,0,0,0,0],"sum_hessian":[1.0336948E2,3.5727253E1,6.764222E1,6.549281E1,2.1494076E0],"tree_param":{"num_deleted":"0","num_feature":"265","num_nodes":"5","size_leaf_vector":"1"}},{"base_weights":[-2.3464E-2,-1.7645556E-2,1.0552137E0,3.1247836E-2,2.0406205E-2],"categories":[],"categories_nodes":[],"categories_segments":[],"categories_sizes":[],"default_left":[0,0,0,0,0],"id":67,"left_children":[1,-1,3,-1,-1],"loss_changes":[6.8765724E1,0E0,1.2226486E-1,0E0,0E0],"parents":[2147483647,0,0,2,2],"right_children":[2,-1,4,-1,-1],"split_conditions":[6.4515457E-3,-1.7645556E-2,2.859983E-5,3.1247836E-2,2.0406205E-2],"split_indices":[189,0,115,0,0],"split_type":[0,0,0,0,0],"sum_hessian":[1.0886712E2,7.069564E1,3.8171474E1,3.575823E1,2.4132447E0],"tree_param":{"num_deleted":"0","num_feature":"265","num_nodes":"5","size_leaf_vector":"1"}},{"base_weights":[-1.2615974E-1,-1.757317E-2,9.861159E-1,1.0395881E0,9.171914E-3,2.1310447E-2,3.0838626E-2],"categories":[],"categories_nodes":[],"categories_segments":[],"categories_sizes":[],"default_left":[0,0,0,0,0,0,0],"id":68,"left_children":[1,-1,3,5,-1,-1,-1],"loss_changes":[5.6338062E1,0E0,1.0714493E0,4.1204453E-2,0E0,0E0,0E0],"parents":[2147483647,0,0,2,2,3,3],"right_children":[2,-1,4,6,-1,-1,-1],"split_conditions":[8.026633E-3,-1.757317E-2,8.40986E5,7.0993793E-3,9.171914E-3,2.1310447E-2,3.0838626E-2],"split_indices":[70,0,0,121,0,0,0],"split_type":[0,0,0,0,0,0,0],"sum_hessian":[1.0548242E2,7.381374E1,3.166868E1,2.9227425E1,2.4412565E0,2.3546066E0,2.6872818E1],"tree_param":{"num_deleted":"0","num_feature":"265","num_nodes":"7","size_leaf_vector":"1"}},{"base_weights":[2.352157E-3,-1.7582564E-2,1.0283899E0,3.0317258E-2,2.1494413E-2],"categories":[],"categories_nodes":[],"categories_segments":[],"categories_sizes":[],"default_left":[0,0,0,0,0],"id":69,"left_children":[1,-1,3,-1,-1],"loss_changes":[6.439329E1,0E0,1.2744904E-2,0E0,0E0],"parents":[2147483647,0,0,2,2],"right_children":[2,-1,4,-1,-1],"split_conditions":[6.9031594E-3,-1.7582564E-2,7.291697E-5,3.0317258E-2,2.1494413E-2],"split_indices":[73,0,51,0,0],"split_type":[0,0,0,0,0],"sum_hessian":[1.0297353E2,6.4722786E1,3.8250744E1,3.591639E1,2.3343558E0],"tree_param":{"num_deleted":"0","num_feature":"265","num_nodes":"5","size_leaf_vector":"1"}},{"base_weights":[1.0860487E-1,-5.758847E-1,3.042787E-2,-1.7592963E-2,6.06854E-3],"categories":[],"categories_nodes":[],"categories_segments":[],"categories_sizes":[],"default_left":[0,0,0,0,0],"id":70,"left_children":[1,3,-1,-1,-1],"loss_changes":[7.239782E1,1.5343056E0,0E0,0E0,0E0],"parents":[2147483647,0,0,1,1],"right_children":[2,4,-1,-1,-1],"split_conditions":[7.779134E-3,7.232437E-3,3.042787E-2,-1.7592963E-2,6.06854E-3],"split_indices":[16,112,0,0,0],"split_type":[0,0,0,0,0],"sum_hessian":[1.1236359E2,6.500559E1,4.7357994E1,6.270114E1,2.3044536E0],"tree_param":{"num_deleted":"0","num_feature":"265","num_nodes":"5","size_leaf_vector":"1"}},{"base_weights":[2.892794E-2,1.0311906E0,-1.7556267E-2,3.0377144E-2,2.1477686E-2],"categories":[],"categories_nodes":[],"categories_segments":[],"categories_sizes":[],"default_left":[0,0,0,0,0],"id":71,"left_children":[1,3,-1,-1,-1],"loss_changes":[6.703443E1,1.638031E-2,0E0,0E0,0E0],"parents":[2147483647,0,0,1,1],"right_children":[2,4,-1,-1,-1],"split_conditions":[3.9246534E-3,7.11268E-3,-1.7556267E-2,3.0377144E-2,2.1477686E-2],"split_indices":[11,21,0,0,0],"split_type":[0,0,0,0,0],"sum_hessian":[1.0530076E2,4.0726208E1,6.4574554E1,3.839122E1,2.3349872E0],"tree_param":{"num_deleted":"0","num_feature":"265","num_nodes":"5","size_leaf_vector":"1"}},{"base_weights":[-9.123073E-2,3.0031549E-2,-1.7472338E-2],"categories":[],"categories_nodes":[],"categories_segments":[],"categories_sizes":[],"default_left":[0,0,0],"id":72,"left_children":[1,-1,-1],"loss_changes":[5.626179E1,0E0,0E0],"parents":[2147483647,0,0],"right_children":[2,-1,-1],"split_conditions":[1.9433828E-3,3.0031549E-2,-1.7472338E-2],"split_indices":[67,0,0],"split_type":[0,0,0],"sum_hessian":[9.773684E1,3.0431808E1,6.730503E1],"tree_param":{"num_deleted":"0","num_feature":"265","num_nodes":"3","size_leaf_vector":"1"}},{"base_weights":[3.3497125E-2,-1.7502088E-2,9.953986E-1,1.3352087E-2,2.9719189E-2],"categories":[],"categories_nodes":[],"categories_segments":[],"categories_sizes":[],"default_left":[0,0,0,0,0],"id":73,"left_children":[1,-1,3,-1,-1],"loss_changes":[6.4210365E1,0E0,5.13855E-1,0E0,0E0],"parents":[2147483647,0,0,2,2],"right_children":[2,-1,4,-1,-1],"split_conditions":[6.9031594E-3,-1.7502088E-2,1.4156005E-5,1.3352087E-2,2.9719189E-2],"split_indices":[73,0,115,0,0],"split_type":[0,0,0,0,0],"sum_hessian":[1.0464806E2,6.303918E1,4.1608883E1,2.1806846E0,3.94282E1],"tree_param":{"num_deleted":"0","num_feature":"265","num_nodes":"5","size_leaf_vector":"1"}},{"base_weights":[7.2313026E-2,-5.7217586E-1,2.9580867E-2,-1.7519554E-2,3.1283768E-3],"categories":[],"categories_nodes":[],"categories_segments":[],"categories_sizes":[],"default_left":[0,0,0,0,0],"id":74,"left_children":[1,3,-1,-1,-1],"loss_changes":[6.5608345E1,1.3511982E0,0E0,0E0,0E0],"parents":[2147483647,0,0,1,1],"right_children":[2,4,-1,-1,-1],"split_conditions":[8.176306E-3,7.941345E-3,2.9580867E-2,-1.7519554E-2,3.1283768E-3],"split_indices":[16,197,0,0,0],"split_type":[0,0,0,0,0],"sum_hessian":[1.0731025E2,6.3849865E1,4.3460384E1,6.1125576E1,2.7242887E0],"tree_param":{"num_deleted":"0","num_feature":"265","num_nodes":"5","size_leaf_vector":"1"}},{"base_weights":[8.472985E-3,9.87647E-1,-1.7504295E-2,1.1151974E-2,2.9681355E-2],"categories":[],"categories_nodes":[],"categories_segments":[],"categories_sizes":[],"default_left":[0,0,0,0,0],"id":75,"left_children":[1,3,-1,-1,-1],"loss_changes":[6.8578026E1,8.144684E-1,0E0,0E0,0E0],"parents":[2147483647,0,0,1,1],"right_children":[2,4,-1,-1,-1],"split_conditions":[5.186025E-4,6.3615763E-3,-1.7504295E-2,1.1151974E-2,2.9681355E-2],"split_indices":[95,187,0,0,0],"split_type":[0,0,0,0,0],"sum_hessian":[1.1430928E2,4.3877254E1,7.043202E1,2.4480057E0,4.142925E1],"tree_param":{"num_deleted":"0","num_feature":"265","num_nodes":"5","size_leaf_vector":"1"}},{"base_weights":[-3.6204215E-2,-1.7385855E-2,9.8971134E-1,2.9532993E-2,1.7473377E-2],"categories":[],"categories_nodes":[],"categories_segments":[],"categories_sizes":[],"default_left":[0,0,0,0,0],"id":76,"left_children":[1,-1,3,-1,-1],"loss_changes":[5.6390556E1,0E0,2.344284E-1,0E0,0E0],"parents":[2147483647,0,0,2,2],"right_children":[2,-1,4,-1,-1],"split_conditions":[7.7708294E-3,-1.7385855E-2,1.4788679E-4,2.9532993E-2,1.7473377E-2],"split_indices":[70,0,75,0,0],"split_type":[0,0,0,0,0],"sum_hessian":[9.7448715E1,6.301061E1,3.4438107E1,3.19496E1,2.4885073E0],"tree_param":{"num_deleted":"0","num_feature":"265","num_nodes":"5","size_leaf_vector":"1"}},{"base_weights":[-3.9464474E-2,-1.7394304E-2,2.9011345E-2],"categories":[],"categories_nodes":[],"categories_segments":[],"categories_sizes":[],"default_left":[0,0,0],"id":77,"left_children":[1,-1,-1],"loss_changes":[5.8214867E1,0E0,0E0],"parents":[2147483647,0,0],"right_children":[2,-1,-1],"split_conditions":[6.8562604E-3,-1.7394304E-2,2.9011345E-2],"split_indices":[153,0,0],"split_type":[0,0,0],"sum_hessian":[9.999095E1,6.503642E1,3.495453E1],"tree_param":{"num_deleted":"0","num_feature":"265","num_nodes":"3","size_leaf_vector":"1"}},{"base_weights":[6.872529E-2,-5.6784666E-1,9.91414E-1,-1.7425733E-2,-1.31373E-4,2.0716608E-2,2.9182635E-2],"categories":[],"categories_nodes":[],"categories_segments":[],"categories_sizes":[],"default_left":[0,0,0,0,0,0,0],"id":78,"left_children":[1,3,5,-1,-1,-1,-1],"loss_changes":[6.0982487E1,1.0935497E0,9.25827E-3,0E0,0E0,0E0,0E0],"parents":[2147483647,0,0,1,1,2,2],"right_children":[2,4,6,-1,-1,-1,-1],"split_conditions":[6.9199526E-3,7.941345E-3,6.5407326E-6,-1.7425733E-2,-1.31373E-4,2.0716608E-2,2.9182635E-2],"split_indices":[63,197,190,0,0,0,0],"split_type":[0,0,0,0,0,0,0],"sum_hessian":[1.0347601E2,6.126533E1,4.221068E1,5.7967373E1,3.2979615E0,2.3176126E0,3.9893063E1],"tree_param":{"num_deleted":"0","num_feature":"265","num_nodes":"7","size_leaf_vector":"1"}},{"base_weights":[2.7208594E-3,-1.7407736E-2,9.76258E-1,2.8894585E-2,1.884359E-2],"categories":[],"categories_nodes":[],"categories_segments":[],"categories_sizes":[],"default_left":[0,0,0,0,0],"id":79,"left_children":[1,-1,3,-1,-1],"loss_changes":[6.069141E1,0E0,1.0536575E-1,0E0,0E0],"parents":[2147483647,0,0,2,2],"right_children":[2,-1,4,-1,-1],"split_conditions":[6.4551574E-3,-1.7407736E-2,2.8358132E-5,2.8894585E-2,1.884359E-2],"split_indices":[113,0,172,0,0],"split_type":[0,0,0,0,0],"sum_hessian":[1.0324889E2,6.384501E1,3.940389E1,3.6987778E1,2.4161103E0],"tree_param":{"num_deleted":"0","num_feature":"265","num_nodes":"5","size_leaf_vector":"1"}},{"base_weights":[-1.724733E-1,-1.732186E-2,8.864616E-1,9.6449167E-1,1.0710045E-2,2.891637E-2,1.8671108E-2],"categories":[],"categories_nodes":[],"categories_segments":[],"categories_sizes":[],"default_left":[0,0,0,0,0,0,0],"id":80,"left_children":[1,-1,3,5,-1,-1,-1],"loss_changes":[4.3651863E1,0E0,1.0491943E0,1.0905266E-1,0E0,0E0,0E0],"parents":[2147483647,0,0,2,2,3,3],"right_children":[2,-1,4,6,-1,-1,-1],"split_conditions":[7.845477E-3,-1.732186E-2,1.11996094E-4,6.10356E5,1.0710045E-2,2.891637E-2,1.8671108E-2],"split_indices":[24,0,46,0,0,0,0],"split_type":[0,0,0,0,0,0,0],"sum_hessian":[9.694587E1,6.9308E1,2.7637867E1,2.3872242E1,3.7656264E0,2.14446E1,2.4276412E0],"tree_param":{"num_deleted":"0","num_feature":"265","num_nodes":"7","size_leaf_vector":"1"}},{"base_weights":[7.5777816E-3,2.835668E-2,-1.7322693E-2],"categories":[],"categories_nodes":[],"categories_segments":[],"categories_sizes":[],"default_left":[0,0,0],"id":81,"left_children":[1,-1,-1],"loss_changes":[5.572578E1,0E0,0E0],"parents":[2147483647,0,0],"right_children":[2,-1,-1],"split_conditions":[1.0607908E-4,2.835668E-2,-1.7322693E-2],"split_indices":[28,0,0],"split_type":[0,0,0],"sum_hessian":[9.499314E1,3.644629E1,5.854685E1],"tree_param":{"num_deleted":"0","num_feature":"265","num_nodes":"3","size_leaf_vector":"1"}},{"base_weights":[6.739778E-2,9.7355485E-1,-5.6485754E-1,2.8668528E-2,2.0464212E-2,7.6799407E-3,-1.7335834E-2],"categories":[],"categories_nodes":[],"categories_segments":[],"categories_sizes":[],"default_left":[0,0,0,0,0,0,0],"id":82,"left_children":[1,3,5,-1,-1,-1,-1],"loss_changes":[5.6131264E1,2.7809143E-3,1.5461502E0,0E0,0E0,0E0,0E0],"parents":[2147483647,0,0,1,1,2,2],"right_children":[2,4,6,-1,-1,-1,-1],"split_conditions":[3.5629916E-4,1.8893335E-5,9.38236E-6,2.8668528E-2,2.0464212E-2,7.6799407E-3,-1.7335834E-2],"split_indices":[156,185,185,0,0,0,0],"split_type":[0,0,0,0,0,0,0],"sum_hessian":[9.7624275E1,4.0088963E1,5.7535313E1,3.7774673E1,2.3142905E0,2.0586073E0,5.5476704E1],"tree_param":{"num_deleted":"0","num_feature":"265","num_nodes":"7","size_leaf_vector":"1"}},{"base_weights":[3.7120648E-3,-1.7329345E-2,2.8406259E-2],"categories":[],"categories_nodes":[],"categories_segments":[],"categories_sizes":[],"default_left":[0,0,0],"id":83,"left_children":[1,-1,-1],"loss_changes":[6.0666267E1,0E0,0E0],"parents":[2147483647,0,0],"right_children":[2,-1,-1],"split_conditions":[6.4515457E-3,-1.7329345E-2,2.8406259E-2],"split_indices":[189,0,0],"split_type":[0,0,0],"sum_hessian":[1.0347758E2,6.4061424E1,3.9416157E1],"tree_param":{"num_deleted":"0","num_feature":"265","num_nodes":"3","size_leaf_vector":"1"}},{"base_weights":[-1.045684E-1,-1.7253868E-2,9.1291857E-1,2.8324364E-2,1.8030189E-3],"categories":[],"categories_nodes":[],"categories_segments":[],"categories_sizes":[],"default_left":[0,0,0,0,0],"id":84,"left_children":[1,-1,3,-1,-1],"loss_changes":[4.791903E1,0E0,1.6214828E0,0E0,0E0],"parents":[2147483647,0,0,2,2],"right_children":[2,-1,4,-1,-1],"split_conditions":[8.421636E-3,-1.7253868E-2,3.1415657E-5,2.8324364E-2,1.8030189E-3],"split_indices":[51,0,73,0,0],"split_type":[0,0,0,0,0],"sum_hessian":[9.592325E1,6.483638E1,3.108687E1,2.8950047E1,2.1368222E0],"tree_param":{"num_deleted":"0","num_feature":"265","num_nodes":"5","size_leaf_vector":"1"}},{"base_weights":[-2.620393E-2,-1.7243475E-2,2.7737092E-2],"categories":[],"categories_nodes":[],"categories_segments":[],"categories_sizes":[],"default_left":[0,0,0],"id":85,"left_children":[1,-1,-1],"loss_changes":[5.2449566E1,0E0,0E0],"parents":[2147483647,0,0],"right_children":[2,-1,-1],"split_conditions":[6.8562604E-3,-1.7243475E-2,2.7737092E-2],"split_indices":[153,0,0],"split_type":[0,0,0],"sum_hessian":[9.3958786E1,5.957992E1,3.437887E1],"tree_param":{"num_deleted":"0","num_feature":"265","num_nodes":"3","size_leaf_vector":"1"}},{"base_weights":[5.1005155E-2,-5.6290084E-1,9.420467E-1,-1.726789E-2,1.6112016E-4,1.9755969E-2,2.771899E-2],"categories":[],"categories_nodes":[],"categories_segments":[],"categories_sizes":[],"default_left":[0,0,0,0,0,0,0],"id":86,"left_children":[1,3,5,-1,-1,-1,-1],"loss_changes":[5.7480495E1,1.1127701E0,3.4065247E-3,0E0,0E0,0E0,0E0],"parents":[2147483647,0,0,1,1,2,2],"right_children":[2,4,6,-1,-1,-1,-1],"split_conditions":[6.9199526E-3,7.892847E-3,3.834292E-6,-1.726789E-2,1.6112016E-4,1.9755969E-2,2.771899E-2],"split_indices":[63,197,129,0,0,0,0],"split_type":[0,0,0,0,0,0,0],"sum_hessian":[1.0472939E2,6.2039402E1,4.268999E1,5.8811E1,3.2284024E0,2.3093004E0,4.038069E1],"tree_param":{"num_deleted":"0","num_feature":"265","num_nodes":"7","size_leaf_vector":"1"}},{"base_weights":[1.1182998E-2,-1.7247893E-2,9.3862647E-1,1.7672008E-2,2.7829062E-2],"categories":[],"categories_nodes":[],"categories_segments":[],"categories_sizes":[],"default_left":[0,0,0,0,0],"id":87,"left_children":[1,-1,3,-1,-1],"loss_changes":[5.4666435E1,0E0,1.2464142E-1,0E0,0E0],"parents":[2147483647,0,0,2,2],"right_children":[2,-1,4,-1,-1],"split_conditions":[6.4551574E-3,-1.7247893E-2,5.2457224E-3,1.7672008E-2,2.7829062E-2],"split_indices":[113,0,45,0,0],"split_type":[0,0,0,0,0],"sum_hessian":[9.712312E1,5.8823387E1,3.829974E1,2.4202466E0,3.5879494E1],"tree_param":{"num_deleted":"0","num_feature":"265","num_nodes":"5","size_leaf_vector":"1"}},{"base_weights":[-1.5234016E-1,9.276981E-1,-1.7170807E-2,1.5966479E-2,2.7904777E-2],"categories":[],"categories_nodes":[],"categories_segments":[],"categories_sizes":[],"default_left":[0,0,0,0,0],"id":88,"left_children":[1,3,-1,-1,-1],"loss_changes":[4.5998222E1,2.3840332E-1,0E0,0E0,0E0],"parents":[2147483647,0,0,1,1],"right_children":[2,4,-1,-1,-1],"split_conditions":[3.668974E-4,8.541343E-5,-1.7170807E-2,1.5966479E-2,2.7904777E-2],"split_indices":[73,136,0,0,0],"split_type":[0,0,0,0,0],"sum_hessian":[9.675284E1,2.787668E1,6.887616E1,2.476851E0,2.5399828E1],"tree_param":{"num_deleted":"0","num_feature":"265","num_nodes":"5","size_leaf_vector":"1"}},{"base_weights":[1.1598595E-2,2.7156474E-2,-1.7175458E-2],"categories":[],"categories_nodes":[],"categories_segments":[],"categories_sizes":[],"default_left":[0,0,0],"id":89,"left_children":[1,-1,-1],"loss_changes":[6.0450733E1,0E0,0E0],"parents":[2147483647,0,0],"right_children":[2,-1,-1],"split_conditions":[7.522138E-5,2.7156474E-2,-1.7175458E-2],"split_indices":[28,0,0],"split_type":[0,0,0],"sum_hessian":[1.0834598E2,4.276835E1,6.557763E1],"tree_param":{"num_deleted":"0","num_feature":"265","num_nodes":"3","size_leaf_vector":"1"}},{"base_weights":[1.0515324E-1,9.071797E-1,-5.7374233E-1,2.6632978E-3,9.475931E-1,-3.1251432E-3,-1.7179836E-2,2.6951658E-2,3.5527132E-2],"categories":[],"categories_nodes":[],"categories_segments":[],"categories_sizes":[],"default_left":[0,0,0,0,0,0,0,0,0],"id":90,"left_children":[1,3,5,-1,7,-1,-1,-1,-1],"loss_changes":[5.515985E1,1.5053825E0,4.278202E-1,0E0,2.6687622E-2,0E0,0E0,0E0,0E0],"parents":[2147483647,0,0,1,1,2,2,4,4],"right_children":[2,4,6,-1,8,-1,-1,-1,-1],"split_conditions":[7.3571265E-4,8.000652E-3,1.7004382E-5,2.6632978E-3,7.2506405E-3,-3.1251432E-3,-1.7179836E-2,2.6951658E-2,3.5527132E-2],"split_indices":[187,19,169,0,134,0,0,0,0],"split_type":[0,0,0,0,0,0,0,0,0],"sum_hessian":[1.00957504E2,4.6261208E1,5.4696297E1,2.22231E0,4.40389E1,2.0348485E0,5.2661446E1,4.177117E1,2.2677262E0],"tree_param":{"num_deleted":"0","num_feature":"265","num_nodes":"9","size_leaf_vector":"1"}},{"base_weights":[-1.7273324E-2,-1.7170891E-2,9.177821E-1,2.7227975E-2,1.715081E-2],"categories":[],"categories_nodes":[],"categories_segments":[],"categories_sizes":[],"default_left":[0,0,0,0,0],"id":91,"left_children":[1,-1,3,-1,-1],"loss_changes":[5.3451706E1,0E0,1.2636757E-1,0E0,0E0],"parents":[2147483647,0,0,2,2],"right_children":[2,-1,4,-1,-1],"split_conditions":[6.4551574E-3,-1.7170891E-2,4.7594127E-3,2.7227975E-2,1.715081E-2],"split_indices":[113,0,107,0,0],"split_type":[0,0,0,0,0],"sum_hessian":[9.931656E1,6.1602806E1,3.771375E1,3.5297844E1,2.4159052E0],"tree_param":{"num_deleted":"0","num_feature":"265","num_nodes":"5","size_leaf_vector":"1"}},{"base_weights":[-1.0971793E-1,-5.7964045E-1,8.8585126E-1,-1.7197873E-2,-4.958072E-3,2.706635E-2,8.150302E-3],"categories":[],"categories_nodes":[],"categories_segments":[],"categories_sizes":[],"default_left":[0,0,0,0,0,0,0],"id":92,"left_children":[1,3,5,-1,-1,-1,-1],"loss_changes":[4.6418285E1,3.0975342E-1,8.193798E-1,0E0,0E0,0E0,0E0],"parents":[2147483647,0,0,1,1,2,2],"right_children":[2,4,6,-1,-1,-1,-1],"split_conditions":[8.399875E-3,1.30666075E-2,3.5757015E-3,-1.7197873E-2,-4.958072E-3,2.706635E-2,8.150302E-3],"split_indices":[125,9,225,0,0,0,0],"split_type":[0,0,0,0,0,0,0],"sum_hessian":[9.8857925E1,6.721438E1,3.1643543E1,6.517833E1,2.0360477E0,2.9329115E1,2.314429E0],"tree_param":{"num_deleted":"0","num_feature":"265","num_nodes":"7","size_leaf_vector":"1"}},{"base_weights":[-8.699177E-4,2.6672661E-2,-1.7101273E-2],"categories":[],"categories_nodes":[],"categories_segments":[],"categories_sizes":[],"default_left":[0,0,0],"id":93,"left_children":[1,-1,-1],"loss_changes":[5.02903E1,0E0,0E0],"parents":[2147483647,0,0],"right_children":[2,-1,-1],"split_conditions":[1.4682929E-3,2.6672661E-2,-1.7101273E-2],"split_indices":[22,0,0],"split_type":[0,0,0],"sum_hessian":[9.282E1,3.6163975E1,5.665602E1],"tree_param":{"num_deleted":"0","num_feature":"265","num_nodes":"3","size_leaf_vector":"1"}},{"base_weights":[4.9335506E-2,9.08591E-1,-5.573612E-1,1.3385288E-2,9.319191E-1,5.20972E-3,-1.7113596E-2,2.640171E-2,3.4574512E-2],"categories":[],"categories_nodes":[],"categories_segments":[],"categories_sizes":[],"default_left":[0,0,0,0,0,0,0,0,0],"id":94,"left_children":[1,3,5,-1,7,-1,-1,-1,-1],"loss_changes":[4.881254E1,3.1671333E-1,1.296648E0,0E0,1.2472153E-2,0E0,0E0,0E0,0E0],"parents":[2147483647,0,0,1,1,2,2,4,4],"right_children":[2,4,6,-1,8,-1,-1,-1,-1],"split_conditions":[2.7715997E-3,5.021588E-4,2.6132172E-4,1.3385288E-2,7.2402746E-4,5.20972E-3,-1.7113596E-2,2.640171E-2,3.4574512E-2],"split_indices":[101,211,229,0,168,0,0,0,0],"split_type":[0,0,0,0,0,0,0,0,0],"sum_hessian":[9.328391E1,3.857685E1,5.470706E1,2.1089745E0,3.6467876E1,2.1988487E0,5.2508213E1,3.418795E1,2.2799277E0],"tree_param":{"num_deleted":"0","num_feature":"265","num_nodes":"9","size_leaf_vector":"1"}},{"base_weights":[6.726516E-2,-1.7078238E-2,8.9367473E-1,2.677212E-2,1.0308829E-2],"categories":[],"categories_nodes":[],"categories_segments":[],"categories_sizes":[],"default_left":[0,0,0,0,0],"id":95,"left_children":[1,-1,3,-1,-1],"loss_changes":[5.2652836E1,0E0,5.695152E-1,0E0,0E0],"parents":[2147483647,0,0,2,2],"right_children":[2,-1,4,-1,-1],"split_conditions":[6.4515457E-3,-1.7078238E-2,6.685451E-3,2.677212E-2,1.0308829E-2],"split_indices":[189,0,106,0,0],"split_type":[0,0,0,0,0],"sum_hessian":[9.6932076E1,5.409818E1,4.2833893E1,4.0615444E1,2.2184508E0],"tree_param":{"num_deleted":"0","num_feature":"265","num_nodes":"5","size_leaf_vector":"1"}},{"base_weights":[-6.439434E-2,-1.7036883E-2,8.4186524E-1,8.918354E-1,6.248245E-4,1.5171342E-2,2.6648939E-2],"categories":[],"categories_nodes":[],"categories_segments":[],"categories_sizes":[],"default_left":[0,0,0,0,0,0,0],"id":96,"left_children":[1,-1,3,5,-1,-1,-1],"loss_changes":[4.782963E1,0E0,1.5029125E0,2.2656822E-1,0E0,0E0,0E0],"parents":[2147483647,0,0,2,2,3,3],"right_children":[2,-1,4,6,-1,-1,-1],"split_conditions":[8.421636E-3,-1.7036883E-2,3.1415657E-5,4.2454998E-5,6.248245E-4,1.5171342E-2,2.6648939E-2],"split_indices":[51,0,73,158,0,0,0],"split_type":[0,0,0,0,0,0,0],"sum_hessian":[1.0078287E2,6.400142E1,3.6781445E1,3.464434E1,2.1371017E0,2.4731743E0,3.2171165E1],"tree_param":{"num_deleted":"0","num_feature":"265","num_nodes":"7","size_leaf_vector":"1"}},{"base_weights":[2.0193907E-2,2.591059E-2,-1.7028423E-2],"categories":[],"categories_nodes":[],"categories_segments":[],"categories_sizes":[],"default_left":[0,0,0],"id":97,"left_children":[1,-1,-1],"loss_changes":[5.330008E1,0E0,0E0],"parents":[2147483647,0,0],"right_children":[2,-1,-1],"split_conditions":[3.116907E-4,2.591059E-2,-1.7028423E-2],"split_indices":[180,0,0],"split_type":[0,0,0],"sum_hessian":[1.0055759E2,4.122539E1,5.9332195E1],"tree_param":{"num_deleted":"0","num_feature":"265","num_nodes":"3","size_leaf_vector":"1"}},{"base_weights":[7.162009E-2,2.6474234E-2,-5.4237694E-1,-1.7069777E-2,8.639226E-3],"categories":[],"categories_nodes":[],"categories_segments":[],"categories_sizes":[],"default_left":[0,0,0,0,0],"id":98,"left_children":[1,-1,3,-1,-1],"loss_changes":[5.1177914E1,0E0,2.2001972E0,0E0,0E0],"parents":[2147483647,0,0,2,2],"right_children":[2,-1,4,-1,-1],"split_conditions":[3.5629916E-4,2.6474234E-2,6.168946E-3,-1.7069777E-2,8.639226E-3],"split_indices":[156,0,91,0,0],"split_type":[0,0,0,0,0],"sum_hessian":[9.895488E1,4.177606E1,5.717882E1,5.4331085E1,2.8477352E0],"tree_param":{"num_deleted":"0","num_feature":"265","num_nodes":"5","size_leaf_vector":"1"}},{"base_weights":[1.980721E-2,-5.7386905E-1,2.6041543E-2,-1.7048739E-2,-5.6916634E-3],"categories":[],"categories_nodes":[],"categories_segments":[],"categories_sizes":[],"default_left":[0,0,0,0,0],"id":99,"left_children":[1,3,-1,-1,-1],"loss_changes":[5.045689E1,2.5177383E-1,0E0,0E0,0E0],"parents":[2147483647,0,0,1,1],"right_children":[2,4,-1,-1,-1],"split_conditions":[7.1087764E-3,9.4334595E-3,2.6041543E-2,-1.7048739E-2,-5.6916634E-3],"split_indices":[113,86,0,0,0],"split_type":[0,0,0,0,0],"sum_hessian":[9.663611E1,5.7636993E1,3.8999115E1,5.5634323E1,2.002667E0],"tree_param":{"num_deleted":"0","num_feature":"265","num_nodes":"5","size_leaf_vector":"1"}},{"base_weights":[-1.1902733E-1,-1.6972033E-2,8.464601E-1,2.6017077E-2,7.0321052E-3],"categories":[],"categories_nodes":[],"categories_segments":[],"categories_sizes":[],"default_left":[0,0,0,0,0],"id":100,"left_children":[1,-1,3,-1,-1],"loss_changes":[4.1598785E1,0E0,8.397751E-1,0E0,0E0],"parents":[2147483647,0,0,2,2],"right_children":[2,-1,4,-1,-1],"split_conditions":[8.026633E-3,-1.6972033E-2,4.2424263E-3,2.6017077E-2,7.0321052E-3],"split_indices":[70,0,191,0,0],"split_type":[0,0,0,0,0],"sum_hessian":[9.2299385E1,6.2350178E1,2.9949207E1,2.7619997E1,2.3292108E0],"tree_param":{"num_deleted":"0","num_feature":"265","num_nodes":"5","size_leaf_vector":"1"}},{"base_weights":[-5.1869664E-2,-1.6996924E-2,2.5350548E-2],"categories":[],"categories_nodes":[],"categories_segments":[],"categories_sizes":[],"default_left":[0,0,0],"id":101,"left_children":[1,-1,-1],"loss_changes":[4.4900238E1,0E0,0E0],"parents":[2147483647,0,0],"right_children":[2,-1,-1],"split_conditions":[6.692297E-3,-1.6996924E-2,2.5350548E-2],"split_indices":[128,0,0],"split_type":[0,0,0],"sum_hessian":[9.0801414E1,5.763601E1,3.3165405E1],"tree_param":{"num_deleted":"0","num_feature":"265","num_nodes":"3","size_leaf_vector":"1"}},{"base_weights":[7.693954E-2,-1.7005017E-2,8.7442255E-1,1.7888315E-2,2.5725694E-2],"categories":[],"categories_nodes":[],"categories_segments":[],"categories_sizes":[],"default_left":[0,0,0,0,0],"id":102,"left_children":[1,-1,3,-1,-1],"loss_changes":[5.3666306E1,0E0,1.9405365E-2,0E0,0E0],"parents":[2147483647,0,0,2,2],"right_children":[2,-1,4,-1,-1],"split_conditions":[7.3060864E-3,-1.7005017E-2,7.568292E-4,1.7888315E-2,2.5725694E-2],"split_indices":[63,0,192,0,0],"split_type":[0,0,0,0,0],"sum_hessian":[1.0129112E2,5.536263E1,4.5928493E1,2.2809482E0,4.3647545E1],"tree_param":{"num_deleted":"0","num_feature":"265","num_nodes":"5","size_leaf_vector":"1"}},{"base_weights":[-2.8124347E-2,-1.6962899E-2,8.596407E-1,2.555514E-2,1.5800403E-2],"categories":[],"categories_nodes":[],"categories_segments":[],"categories_sizes":[],"default_left":[0,0,0,0,0],"id":103,"left_children":[1,-1,3,-1,-1],"loss_changes":[4.5466106E1,0E0,1.2390518E-1,0E0,0E0],"parents":[2147483647,0,0,2,2],"right_children":[2,-1,4,-1,-1],"split_conditions":[6.4551574E-3,-1.6962899E-2,3.9228986E-4,2.555514E-2,1.5800403E-2],"split_indices":[113,0,63,0,0],"split_type":[0,0,0,0,0],"sum_hessian":[9.183554E1,5.652946E1,3.530608E1,3.2910595E1,2.3954852E0],"tree_param":{"num_deleted":"0","num_feature":"265","num_nodes":"5","size_leaf_vector":"1"}},{"base_weights":[-1.4194916E-1,-1.689958E-2,2.5377942E-2],"categories":[],"categories_nodes":[],"categories_segments":[],"categories_sizes":[],"default_left":[0,0,0],"id":104,"left_children":[1,-1,-1],"loss_changes":[3.7648937E1,0E0,0E0],"parents":[2147483647,0,0],"right_children":[2,-1,-1],"split_conditions":[8.209429E-3,-1.689958E-2,2.5377942E-2],"split_indices":[125,0,0],"split_type":[0,0,0],"sum_hessian":[8.3999374E1,5.867718E1,2.5322195E1],"tree_param":{"num_deleted":"0","num_feature":"265","num_nodes":"3","size_leaf_vector":"1"}},{"base_weights":[5.0084917E-3,2.5218513E-2,-1.6878035E-2],"categories":[],"categories_nodes":[],"categories_segments":[],"categories_sizes":[],"default_left":[0,0,0],"id":105,"left_children":[1,-1,-1],"loss_changes":[4.9043423E1,0E0,0E0],"parents":[2147483647,0,0],"right_children":[2,-1,-1],"split_conditions":[1.551475E-4,2.5218513E-2,-1.6878035E-2],"split_indices":[28,0,0],"split_type":[0,0,0],"sum_hessian":[9.668554E1,3.9071606E1,5.7613934E1],"tree_param":{"num_deleted":"0","num_feature":"265","num_nodes":"3","size_leaf_vector":"1"}},{"base_weights":[5.872029E-2,-5.452666E-1,2.5177913E-2,-1.6933557E-2,1.0091479E-2],"categories":[],"categories_nodes":[],"categories_segments":[],"categories_sizes":[],"default_left":[0,0,0,0,0],"id":106,"left_children":[1,3,-1,-1,-1],"loss_changes":[4.4157257E1,1.767292E0,0E0,0E0,0E0],"parents":[2147483647,0,0,1,1],"right_children":[2,4,-1,-1,-1],"split_conditions":[7.779134E-3,6.1622E5,2.5177913E-2,-1.6933557E-2,1.0091479E-2],"split_indices":[16,0,0,0,0],"split_type":[0,0,0,0,0],"sum_hessian":[9.017052E1,5.1615795E1,3.855472E1,4.960729E1,2.008504E0],"tree_param":{"num_deleted":"0","num_feature":"265","num_nodes":"5","size_leaf_vector":"1"}},{"base_weights":[6.395602E-2,-1.6871644E-2,8.4908134E-1,1.1059929E-2,2.5313828E-2],"categories":[],"categories_nodes":[],"categories_segments":[],"categories_sizes":[],"default_left":[0,0,0,0,0],"id":107,"left_children":[1,-1,3,-1,-1],"loss_changes":[4.8541035E1,0E0,3.7529373E-1,0E0,0E0],"parents":[2147483647,0,0,2,2],"right_children":[2,-1,4,-1,-1],"split_conditions":[6.4515457E-3,-1.6871644E-2,5.3647496E-3,1.1059929E-2,2.5313828E-2],"split_indices":[189,0,199,0,0],"split_type":[0,0,0,0,0],"sum_hessian":[9.557656E1,5.2506874E1,4.3069683E1,2.0922163E0,4.0977467E1],"tree_param":{"num_deleted":"0","num_feature":"265","num_nodes":"5","size_leaf_vector":"1"}},{"base_weights":[-9.644623E-2,7.8903294E-1,-5.686835E-1,2.5185335E-2,-3.91859E-3,-1.6904552E-2,-5.9361532E-3],"categories":[],"categories_nodes":[],"categories_segments":[],"categories_sizes":[],"default_left":[0,0,0,0,0,0,0],"id":108,"left_children":[1,3,5,-1,-1,-1,-1],"loss_changes":[3.7651127E1,2.2727947E0,2.499981E-1,0E0,0E0,0E0,0E0],"parents":[2147483647,0,0,1,1,2,2],"right_children":[2,4,6,-1,-1,-1,-1],"split_conditions":[3.1415657E-5,7.32186E5,9.795064E-3,2.5185335E-2,-3.91859E-3,-1.6904552E-2,-5.9361532E-3],"split_indices":[73,0,60,0,0,0,0],"split_type":[0,0,0,0,0,0,0],"sum_hessian":[8.968356E1,3.11457E1,5.853786E1,2.8751896E1,2.3938053E0,5.6394978E1,2.1428828E0],"tree_param":{"num_deleted":"0","num_feature":"265","num_nodes":"7","size_leaf_vector":"1"}},{"base_weights":[4.254489E-2,-1.6819848E-2,8.2992744E-1,2.4870306E-2,8.891265E-3],"categories":[],"categories_nodes":[],"categories_segments":[],"categories_sizes":[],"default_left":[0,0,0,0,0],"id":109,"left_children":[1,-1,3,-1,-1],"loss_changes":[4.8849174E1,0E0,5.400219E-1,0E0,0E0],"parents":[2147483647,0,0,2,2],"right_children":[2,-1,4,-1,-1],"split_conditions":[6.489777E-3,-1.6819848E-2,6.3567227E-3,2.4870306E-2,8.891265E-3],"split_indices":[128,0,7,0,0],"split_type":[0,0,0,0,0],"sum_hessian":[9.950086E1,5.5634346E1,4.386652E1,4.16803E1,2.186218E0],"tree_param":{"num_deleted":"0","num_feature":"265","num_nodes":"5","size_leaf_vector":"1"}},{"base_weights":[7.69151E-2,8.504322E-1,-5.4489136E-1,2.506288E-2,1.7169164E-2,-1.6844576E-2,7.0045367E-3],"categories":[],"categories_nodes":[],"categories_segments":[],"categories_sizes":[],"default_left":[0,0,0,0,0,0,0],"id":110,"left_children":[1,3,5,-1,-1,-1,-1],"loss_changes":[4.4852962E1,2.6428223E-2,1.4389057E0,0E0,0E0,0E0,0E0],"parents":[2147483647,0,0,1,1,2,2],"right_children":[2,4,6,-1,-1,-1,-1],"split_conditions":[2.7715997E-3,5.04514E-3,4.780754E-3,2.506288E-2,1.7169164E-2,-1.6844576E-2,7.0045367E-3],"split_indices":[101,167,82,0,0,0,0],"split_type":[0,0,0,0,0,0,0],"sum_hessian":[9.2904526E1,4.1379803E1,5.1524723E1,3.9131016E1,2.2487864E0,4.9399536E1,2.1251874E0],"tree_param":{"num_deleted":"0","num_feature":"265","num_nodes":"7","size_leaf_vector":"1"}},{"base_weights":[-3.278254E-2,2.4349589E-2,-1.6826762E-2],"categories":[],"categories_nodes":[],"categories_segments":[],"categories_sizes":[],"default_left":[0,0,0],"id":111,"left_children":[1,-1,-1],"loss_changes":[4.362061E1,0E0,0E0],"parents":[2147483647,0,0],"right_children":[2,-1,-1],"split_conditions":[2.8637894E-3,2.4349589E-2,-1.6826762E-2],"split_indices":[11,0,0],"split_type":[0,0,0],"sum_hessian":[9.137352E1,3.518308E1,5.6190437E1],"tree_param":{"num_deleted":"0","num_feature":"265","num_nodes":"3","size_leaf_vector":"1"}},{"base_weights":[-1.5028775E-1,7.7066636E-1,-1.6755888E-2,-3.7871185E-3,2.4851372E-2],"categories":[],"categories_nodes":[],"categories_segments":[],"categories_sizes":[],"default_left":[0,0,0,0,0],"id":112,"left_children":[1,3,-1,-1,-1],"loss_changes":[3.5118004E1,2.1810741E0,0E0,0E0,0E0],"parents":[2147483647,0,0,1,1],"right_children":[2,4,-1,-1,-1],"split_conditions":[1.9433828E-3,1.0092455E-4,-1.6755888E-2,-3.7871185E-3,2.4851372E-2],"split_indices":[67,243,0,0,0],"split_type":[0,0,0,0,0],"sum_hessian":[8.9084526E1,2.813583E1,6.0948696E1,2.3940072E0,2.5741821E1],"tree_param":{"num_deleted":"0","num_feature":"265","num_nodes":"5","size_leaf_vector":"1"}},{"base_weights":[-6.376339E-2,-1.6754242E-2,2.4232235E-2],"categories":[],"categories_nodes":[],"categories_segments":[],"categories_sizes":[],"default_left":[0,0,0],"id":113,"left_children":[1,-1,-1],"loss_changes":[3.9214077E1,0E0,0E0],"parents":[2147483647,0,0],"right_children":[2,-1,-1],"split_conditions":[1.2483375E-2,-1.6754242E-2,2.4232235E-2],"split_indices":[18,0,0],"split_type":[0,0,0],"sum_hessian":[8.485045E1,5.4048435E1,3.0802017E1],"tree_param":{"num_deleted":"0","num_feature":"265","num_nodes":"3","size_leaf_vector":"1"}},{"base_weights":[7.274962E-2,8.386967E-1,-5.141259E-1,2.38206E-2,3.12957E-2,-5.6021565E-1,1.5868606E-2,-2.966361E-3,-1.6800437E-2],"categories":[],"categories_nodes":[],"categories_segments":[],"categories_sizes":[],"default_left":[0,0,0,0,0,0,0,0,0],"id":114,"left_children":[1,3,5,-1,-1,7,-1,-1,-1],"loss_changes":[4.318292E1,1.6527176E-2,2.711399E0,0E0,0E0,4.1122818E-1,0E0,0E0,0E0],"parents":[2147483647,0,0,1,1,2,2,5,5],"right_children":[2,4,6,-1,-1,8,-1,-1,-1],"split_conditions":[3.5629916E-4,6.4985645E-3,4.959188E-3,2.38206E-2,3.12957E-2,1.7948558E-5,1.5868606E-2,-2.966361E-3,-1.6800437E-2],"split_indices":[156,178,201,0,0,157,0,0,0],"split_type":[0,0,0,0,0,0,0,0,0],"sum_hessian":[9.5716194E1,4.1497692E1,5.4218502E1,3.9183926E1,2.3137674E0,5.2047195E1,2.1713047E0,2.0200856E0,5.002711E1],"tree_param":{"num_deleted":"0","num_feature":"265","num_nodes":"9","size_leaf_vector":"1"}},{"base_weights":[5.202175E-3,2.4328385E-2,-1.6794607E-2],"categories":[],"categories_nodes":[],"categories_segments":[],"categories_sizes":[],"default_left":[0,0,0],"id":115,"left_children":[1,-1,-1],"loss_changes":[4.665638E1,0E0,0E0],"parents":[2147483647,0,0],"right_children":[2,-1,-1],"split_conditions":[2.4534801E-3,2.4328385E-2,-1.6794607E-2],"split_indices":[11,0,0],"split_type":[0,0,0],"sum_hessian":[9.5822556E1,3.946152E1,5.636104E1],"tree_param":{"num_deleted":"0","num_feature":"265","num_nodes":"3","size_leaf_vector":"1"}},{"base_weights":[-4.2728186E-2,2.459219E-2,-1.66834E-2],"categories":[],"categories_nodes":[],"categories_segments":[],"categories_sizes":[],"default_left":[0,0,0],"id":116,"left_children":[1,-1,-1],"loss_changes":[4.1001583E1,0E0,0E0],"parents":[2147483647,0,0],"right_children":[2,-1,-1],"split_conditions":[2.8343731E-5,2.459219E-2,-1.66834E-2],"split_indices":[73,0,0],"split_type":[0,0,0],"sum_hessian":[8.6455605E1,3.2298576E1,5.415703E1],"tree_param":{"num_deleted":"0","num_feature":"265","num_nodes":"3","size_leaf_vector":"1"}},{"base_weights":[2.727328E-2,-1.6704755E-2,8.1883293E-1,1.6850786E-2,2.4106655E-2],"categories":[],"categories_nodes":[],"categories_segments":[],"categories_sizes":[],"default_left":[0,0,0,0,0],"id":117,"left_children":[1,-1,3,-1,-1],"loss_changes":[4.5305553E1,0E0,7.358551E-3,0E0,0E0],"parents":[2147483647,0,0,2,2],"right_children":[2,-1,4,-1,-1],"split_conditions":[6.8562604E-3,-1.6704755E-2,4.683119E-3,1.6850786E-2,2.4106655E-2],"split_indices":[153,0,139,0,0],"split_type":[0,0,0,0,0],"sum_hessian":[9.4710205E1,5.38136E1,4.0896606E1,2.2010183E0,3.8695587E1],"tree_param":{"num_deleted":"0","num_feature":"265","num_nodes":"5","size_leaf_vector":"1"}},{"base_weights":[6.1979648E-2,-5.396421E-1,2.39624E-2,-1.6728535E-2,8.572973E-3],"categories":[],"categories_nodes":[],"categories_segments":[],"categories_sizes":[],"default_left":[0,0,0,0,0],"id":118,"left_children":[1,3,-1,-1,-1],"loss_changes":[4.3375023E1,1.619873E0,0E0,0E0,0E0],"parents":[2147483647,0,0,1,1],"right_children":[2,4,-1,-1,-1],"split_conditions":[7.779134E-3,7.8321E-3,2.39624E-2,-1.6728535E-2,8.572973E-3],"split_indices":[16,47,0,0,0],"split_type":[0,0,0,0,0],"sum_hessian":[9.4194336E1,5.267531E1,4.1519028E1,5.0560783E1,2.1145241E0],"tree_param":{"num_deleted":"0","num_feature":"265","num_nodes":"5","size_leaf_vector":"1"}},{"base_weights":[3.301266E-2,-1.6685015E-2,8.1366175E-1,2.415194E-2,1.4256056E-2],"categories":[],"categories_nodes":[],"categories_segments":[],"categories_sizes":[],"default_left":[0,0,0,0,0],"id":119,"left_children":[1,-1,3,-1,-1],"loss_changes":[4.3588707E1,0E0,1.4250946E-1,0E0,0E0],"parents":[2147483647,0,0,2,2],"right_children":[2,-1,4,-1,-1],"split_conditions":[6.4515457E-3,-1.6685015E-2,1.6979282E-3,2.415194E-2,1.4256056E-2],"split_indices":[189,0,111,0,0],"split_type":[0,0,0,0,0],"sum_hessian":[9.161361E1,5.155271E1,4.0060898E1,3.7723953E1,2.336946E0],"tree_param":{"num_deleted":"0","num_feature":"265","num_nodes":"5","size_leaf_vector":"1"}},{"base_weights":[-8.3784565E-2,-1.6614923E-2,8.050966E-1,2.429692E-2,1.2110608E-2],"categories":[],"categories_nodes":[],"categories_segments":[],"categories_sizes":[],"default_left":[0,0,0,0,0],"id":120,"left_children":[1,-1,3,-1,-1],"loss_changes":[3.6573837E1,0E0,2.8657722E-1,0E0,0E0],"parents":[2147483647,0,0,2,2],"right_children":[2,-1,4,-1,-1],"split_conditions":[7.845477E-3,-1.6614923E-2,5.146515E-4,2.429692E-2,1.2110608E-2],"split_indices":[24,0,243,0,0],"split_type":[0,0,0,0,0],"sum_hessian":[8.397111E1,5.425935E1,2.971176E1,2.730849E1,2.403269E0],"tree_param":{"num_deleted":"0","num_feature":"265","num_nodes":"5","size_leaf_vector":"1"}},{"base_weights":[2.493692E-2,-1.6608061E-2,2.3588223E-2],"categories":[],"categories_nodes":[],"categories_segments":[],"categories_sizes":[],"default_left":[0,0,0],"id":121,"left_children":[1,-1,-1],"loss_changes":[4.2360355E1,0E0,0E0],"parents":[2147483647,0,0],"right_children":[2,-1,-1],"split_conditions":[6.9031594E-3,-1.6608061E-2,2.3588223E-2],"split_indices":[73,0,0],"split_type":[0,0,0],"sum_hessian":[8.992424E1,5.1168938E1,3.87553E1],"tree_param":{"num_deleted":"0","num_feature":"265","num_nodes":"3","size_leaf_vector":"1"}},{"base_weights":[1.0500986E-1,-5.1679885E-1,2.3531262E-2,9.995755E-3,-5.5382514E-1,-2.3931146E-3,-1.667297E-2],"categories":[],"categories_nodes":[],"categories_segments":[],"categories_sizes":[],"default_left":[0,0,0,0,0,0,0],"id":122,"left_children":[1,3,-1,-1,5,-1,-1],"loss_changes":[4.1725986E1,1.6477537E0,0E0,0E0,4.412117E-1,0E0,0E0],"parents":[2147483647,0,0,1,1,4,4],"right_children":[2,4,-1,-1,6,-1,-1],"split_conditions":[8.645061E-3,6.5919576E-4,2.3531262E-2,9.995755E-3,5.165086E-1,-2.3931146E-3,-1.667297E-2],"split_indices":[63,44,0,0,2,0,0],"split_type":[0,0,0,0,0,0,0],"sum_hessian":[9.487517E1,5.0419605E1,4.4455566E1,2.0090442E0,4.841056E1,2.0157878E0,4.639477E1],"tree_param":{"num_deleted":"0","num_feature":"265","num_nodes":"7","size_leaf_vector":"1"}},{"base_weights":[1.1119371E-2,8.025394E-1,-1.6626596E-2,1.6622782E-2,2.362549E-2],"categories":[],"categories_nodes":[],"categories_segments":[],"categories_sizes":[],"default_left":[0,0,0,0,0],"id":123,"left_children":[1,3,-1,-1,-1],"loss_changes":[4.3263474E1,1.0566711E-3,0E0,0E0,0E0],"parents":[2147483647,0,0,1,1],"right_children":[2,4,-1,-1,-1],"split_conditions":[3.9246534E-3,6.8558665E-4,-1.6626596E-2,1.6622782E-2,2.362549E-2],"split_indices":[11,206,0,0,0],"split_type":[0,0,0,0,0],"sum_hessian":[9.337366E1,3.9595707E1,5.377795E1,2.173748E0,3.742196E1],"tree_param":{"num_deleted":"0","num_feature":"265","num_nodes":"5","size_leaf_vector":"1"}},{"base_weights":[-4.9516946E-2,-5.517574E-1,2.3687547E-2,-1.676178E-2,2.887532E-3],"categories":[],"categories_nodes":[],"categories_segments":[],"categories_sizes":[],"default_left":[0,0,0,0,0],"id":124,"left_children":[1,3,-1,-1,-1],"loss_changes":[3.888824E1,9.3735695E-1,0E0,0E0,0E0],"parents":[2147483647,0,0,1,1],"right_children":[2,4,-1,-1,-1],"split_conditions":[8.173276E-3,4.9059656E-3,2.3687547E-2,-1.676178E-2,2.887532E-3],"split_indices":[24,220,0,0,0],"split_type":[0,0,0,0,0],"sum_hessian":[8.920441E1,5.647377E1,3.2730633E1,5.441746E1,2.0563095E0],"tree_param":{"num_deleted":"0","num_feature":"265","num_nodes":"5","size_leaf_vector":"1"}},{"base_weights":[6.0646106E-2,-1.6574077E-2,7.9325795E-1,1.6033748E-2,2.3365885E-2],"categories":[],"categories_nodes":[],"categories_segments":[],"categories_sizes":[],"default_left":[0,0,0,0,0],"id":125,"left_children":[1,-1,3,-1,-1],"loss_changes":[4.075059E1,0E0,1.5634537E-2,0E0,0E0],"parents":[2147483647,0,0,2,2],"right_children":[2,-1,4,-1,-1],"split_conditions":[1.2329787E-2,-1.6574077E-2,1.1051325E-2,1.6033748E-2,2.3365885E-2],"split_indices":[18,0,64,0,0],"split_type":[0,0,0,0,0],"sum_hessian":[8.780651E1,4.7189873E1,4.061664E1,2.1605356E0,3.8456104E1],"tree_param":{"num_deleted":"0","num_feature":"265","num_nodes":"5","size_leaf_vector":"1"}},{"base_weights":[1.3880353E-2,-1.662631E-2,7.915173E-1,1.6030522E-2,2.3353435E-2],"categories":[],"categories_nodes":[],"categories_segments":[],"categories_sizes":[],"default_left":[0,0,0,0,0],"id":126,"left_children":[1,-1,3,-1,-1],"loss_changes":[3.875233E1,0E0,1.5522003E-2,0E0,0E0],"parents":[2147483647,0,0,2,2],"right_children":[2,-1,4,-1,-1],"split_conditions":[6.6081462E-3,-1.662631E-2,1.7304585E-3,1.6030522E-2,2.3353435E-2],"split_indices":[63,0,21,0,0],"split_type":[0,0,0,0,0],"sum_hessian":[8.4687836E1,4.831421E1,3.6373627E1,2.1722252E0,3.42014E1],"tree_param":{"num_deleted":"0","num_feature":"265","num_nodes":"5","size_leaf_vector":"1"}},{"base_weights":[2.2894623E-2,2.307969E-2,-5.5505943E-1,-3.3413146E-3,-1.6624697E-2],"categories":[],"categories_nodes":[],"categories_segments":[],"categories_sizes":[],"default_left":[0,0,0,0,0],"id":127,"left_children":[1,-1,3,-1,-1],"loss_changes":[4.0590584E1,0E0,3.7132263E-1,0E0,0E0],"parents":[2147483647,0,0,2,2],"right_children":[2,-1,4,-1,-1],"split_conditions":[2.4534801E-3,2.307969E-2,8.079691E-5,-3.3413146E-3,-1.6624697E-2],"split_indices":[11,0,24,0,0],"split_type":[0,0,0,0,0],"sum_hessian":[9.070557E1,3.8833405E1,5.1872166E1,2.0004535E0,4.987171E1],"tree_param":{"num_deleted":"0","num_feature":"265","num_nodes":"5","size_leaf_vector":"1"}},{"base_weights":[-1.11841515E-1,-1.6496345E-2,7.204701E-1,1.7238386E-3,7.755169E-1,2.3491902E-2,1.1085644E-2],"categories":[],"categories_nodes":[],"categories_segments":[],"categories_sizes":[],"default_left":[0,0,0,0,0,0,0],"id":128,"left_children":[1,-1,3,-1,5,-1,-1],"loss_changes":[3.30296E1,0E0,1.1053972E0,0E0,3.0254364E-1,0E0,0E0],"parents":[2147483647,0,0,2,2,4,4],"right_children":[2,-1,4,-1,6,-1,-1],"split_conditions":[7.845477E-3,-1.6496345E-2,1.261382E-4,1.7238386E-3,5.36768E-4,2.3491902E-2,1.1085644E-2],"split_indices":[24,0,151,0,129,0,0],"split_type":[0,0,0,0,0,0,0],"sum_hessian":[8.670551E1,5.6067936E1,3.0637573E1,2.3960073E0,2.8241566E1,2.5876907E1,2.364658E0],"tree_param":{"num_deleted":"0","num_feature":"265","num_nodes":"7","size_leaf_vector":"1"}},{"base_weights":[7.01082E-2,-1.6562562E-2,7.696183E-1,2.3141915E-2,7.298758E-3],"categories":[],"categories_nodes":[],"categories_segments":[],"categories_sizes":[],"default_left":[0,0,0,0,0],"id":129,"left_children":[1,-1,3,-1,-1],"loss_changes":[4.016195E1,0E0,5.4833984E-1,0E0,0E0],"parents":[2147483647,0,0,2,2],"right_children":[2,-1,4,-1,-1],"split_conditions":[6.801133E-3,-1.6562562E-2,1.0802636E-3,2.3141915E-2,7.298758E-3],"split_indices":[73,0,93,0,0],"split_type":[0,0,0,0,0],"sum_hessian":[8.935578E1,4.6671574E1,4.2684208E1,4.048725E1,2.1969552E0],"tree_param":{"num_deleted":"0","num_feature":"265","num_nodes":"5","size_leaf_vector":"1"}},{"base_weights":[9.532693E-2,-5.503993E-1,2.2849118E-2,-1.6563099E-2,-2.636222E-3],"categories":[],"categories_nodes":[],"categories_segments":[],"categories_sizes":[],"default_left":[0,0,0,0,0],"id":130,"left_children":[1,3,-1,-1,-1],"loss_changes":[4.170964E1,4.1877842E-1,0E0,0E0,0E0],"parents":[2147483647,0,0,1,1],"right_children":[2,4,-1,-1,-1],"split_conditions":[8.645061E-3,6.1622E5,2.2849118E-2,-1.6563099E-2,-2.636222E-3],"split_indices":[63,0,0,0,0],"split_type":[0,0,0,0,0],"sum_hessian":[9.314034E1,4.8155838E1,4.4984505E1,4.6132275E1,2.0235648E0],"tree_param":{"num_deleted":"0","num_feature":"265","num_nodes":"5","size_leaf_vector":"1"}},{"base_weights":[-2.3413025E-2,-1.6501928E-2,7.802008E-1,2.3108397E-2,1.510885E-2],"categories":[],"categories_nodes":[],"categories_segments":[],"categories_sizes":[],"default_left":[0,0,0,0,0],"id":131,"left_children":[1,-1,3,-1,-1],"loss_changes":[3.6248E1,0E0,4.553795E-2,0E0,0E0],"parents":[2147483647,0,0,2,2],"right_children":[2,-1,4,-1,-1],"split_conditions":[6.4515457E-3,-1.6501928E-2,1.1197561E-3,2.3108397E-2,1.510885E-2],"split_indices":[189,0,193,0,0],"split_type":[0,0,0,0,0],"sum_hessian":[8.250471E1,4.9221767E1,3.328294E1,3.109957E1,2.1833696E0],"tree_param":{"num_deleted":"0","num_feature":"265","num_nodes":"5","size_leaf_vector":"1"}},{"base_weights":[-1.050359E-1,-1.6447647E-2,7.01562E-1,5.031716E-3,7.607088E-1,2.3178212E-2,9.2188325E-3],"categories":[],"categories_nodes":[],"categories_segments":[],"categories_sizes":[],"default_left":[0,0,0,0,0,0,0],"id":132,"left_children":[1,-1,3,-1,5,-1,-1],"loss_changes":[2.8602098E1,0E0,8.425703E-1,0E0,3.5536575E-1,0E0,0E0],"parents":[2147483647,0,0,2,2,4,4],"right_children":[2,-1,4,-1,6,-1,-1],"split_conditions":[7.849367E-3,-1.6447647E-2,7.0463945E-3,5.031716E-3,8.093124E-3,2.3178212E-2,9.2188325E-3],"split_indices":[125,0,34,0,17,0,0],"split_type":[0,0,0,0,0,0,0],"sum_hessian":[7.6573845E1,4.8768845E1,2.7805002E1,2.8842697E0,2.4920732E1,2.2859888E1,2.0608442E0],"tree_param":{"num_deleted":"0","num_feature":"265","num_nodes":"7","size_leaf_vector":"1"}},{"base_weights":[-5.0391965E-2,-1.6459528E-2,7.374568E-1,2.2810401E-2,4.307697E-3],"categories":[],"categories_nodes":[],"categories_segments":[],"categories_sizes":[],"default_left":[0,0,0,0,0],"id":133,"left_children":[1,-1,3,-1,-1],"loss_changes":[3.19181E1,0E0,8.395462E-1,0E0,0E0],"parents":[2147483647,0,0,2,2],"right_children":[2,-1,4,-1,-1],"split_conditions":[6.489777E-3,-1.6459528E-2,6.3567227E-3,2.2810401E-2,4.307697E-3],"split_indices":[128,0,7,0,0],"split_type":[0,0,0,0,0],"sum_hessian":[7.816581E1,4.7269188E1,3.0896627E1,2.8525173E1,2.3714542E0],"tree_param":{"num_deleted":"0","num_feature":"265","num_nodes":"5","size_leaf_vector":"1"}},{"base_weights":[9.498029E-2,7.7979314E-1,-5.194446E-1,2.9656421E-2,2.215861E-2,-1.6526463E-2,1.448579E-2],"categories":[],"categories_nodes":[],"categories_segments":[],"categories_sizes":[],"default_left":[0,0,0,0,0,0,0],"id":134,"left_children":[1,3,5,-1,-1,-1,-1],"loss_changes":[3.987577E1,3.3758163E-2,2.553835E0,0E0,0E0,0E0,0E0],"parents":[2147483647,0,0,1,1,2,2],"right_children":[2,4,6,-1,-1,-1,-1],"split_conditions":[3.5629916E-4,6.844409E-4,4.1582747E-3,2.9656421E-2,2.215861E-2,-1.6526463E-2,1.448579E-2],"split_indices":[156,44,191,0,0,0,0],"split_type":[0,0,0,0,0,0,0],"sum_hessian":[9.4420586E1,4.4637707E1,4.978288E1,2.2787685E0,4.2358936E1,4.756858E1,2.2143006E0],"tree_param":{"num_deleted":"0","num_feature":"265","num_nodes":"7","size_leaf_vector":"1"}},{"base_weights":[1.359696E-2,2.2663029E-2,-1.64982E-2],"categories":[],"categories_nodes":[],"categories_segments":[],"categories_sizes":[],"default_left":[0,0,0],"id":135,"left_children":[1,-1,-1],"loss_changes":[3.865912E1,0E0,0E0],"parents":[2147483647,0,0],"right_children":[2,-1,-1],"split_conditions":[3.9246534E-3,2.2663029E-2,-1.64982E-2],"split_indices":[11,0,0],"split_type":[0,0,0],"sum_hessian":[8.643988E1,3.7269703E1,4.9170177E1],"tree_param":{"num_deleted":"0","num_feature":"265","num_nodes":"3","size_leaf_vector":"1"}},{"base_weights":[-1.2093623E-1,-5.541353E-1,2.2630654E-2,-5.5069984E-3,-1.6511722E-2],"categories":[],"categories_nodes":[],"categories_segments":[],"categories_sizes":[],"default_left":[0,0,0,0,0],"id":136,"left_children":[1,3,-1,-1,-1],"loss_changes":[2.9484856E1,2.3522472E-1,0E0,0E0,0E0],"parents":[2147483647,0,0,1,1],"right_children":[2,4,-1,-1,-1],"split_conditions":[8.399875E-3,2.2251394E-3,2.2630654E-2,-5.5069984E-3,-1.6511722E-2],"split_indices":[125,37,0,0,0],"split_type":[0,0,0,0,0],"sum_hessian":[7.5291405E1,5.0873043E1,2.4418365E1,2.004726E0,4.8868317E1],"tree_param":{"num_deleted":"0","num_feature":"265","num_nodes":"5","size_leaf_vector":"1"}},{"base_weights":[5.570268E-2,-1.6461367E-2,7.435357E-1,5.7547763E-3,2.2466807E-2],"categories":[],"categories_nodes":[],"categories_segments":[],"categories_sizes":[],"default_left":[0,0,0,0,0],"id":137,"left_children":[1,-1,3,-1,-1],"loss_changes":[3.871736E1,0E0,6.56662E-1,0E0,0E0],"parents":[2147483647,0,0,2,2],"right_children":[2,-1,4,-1,-1],"split_conditions":[6.801133E-3,-1.6461367E-2,4.3905214E-3,5.7547763E-3,2.2466807E-2],"split_indices":[73,0,242,0,0],"split_type":[0,0,0,0,0],"sum_hessian":[9.012543E1,4.7331417E1,4.279401E1,2.2847807E0,4.050923E1],"tree_param":{"num_deleted":"0","num_feature":"265","num_nodes":"5","size_leaf_vector":"1"}},{"base_weights":[9.537868E-2,7.483855E-1,-5.287407E-1,7.805759E-1,2.9894945E-3,5.9536775E-3,-1.6412178E-2,2.2088256E-2,3.0347308E-2],"categories":[],"categories_nodes":[],"categories_segments":[],"categories_sizes":[],"default_left":[0,0,0,0,0,0,0,0,0],"id":138,"left_children":[1,3,5,7,-1,-1,-1,-1,-1],"loss_changes":[3.5404087E1,8.5956573E-1,1.1970139E0,6.2597275E-2,0E0,0E0,0E0,0E0,0E0],"parents":[2147483647,0,0,1,1,2,2,3,3],"right_children":[2,4,6,8,-1,-1,-1,-1,-1],"split_conditions":[3.1844086E-3,2.946154E-4,5.467723E-5,7.161928E-3,2.9894945E-3,5.9536775E-3,-1.6412178E-2,2.2088256E-2,3.0347308E-2],"split_indices":[101,246,64,24,0,0,0,0,0],"split_type":[0,0,0,0,0,0,0,0,0],"sum_hessian":[8.652009E1,4.2272003E1,4.4248085E1,4.0215233E1,2.0567687E0,2.0193455E0,4.222874E1,3.7975212E1,2.2400234E0],"tree_param":{"num_deleted":"0","num_feature":"265","num_nodes":"9","size_leaf_vector":"1"}},{"base_weights":[-1.5191654E-3,-1.639684E-2,2.2203296E-2],"categories":[],"categories_nodes":[],"categories_segments":[],"categories_sizes":[],"default_left":[0,0,0],"id":139,"left_children":[1,-1,-1],"loss_changes":[3.7887638E1,0E0,0E0],"parents":[2147483647,0,0],"right_children":[2,-1,-1],"split_conditions":[6.4515457E-3,-1.639684E-2,2.2203296E-2],"split_indices":[189,0,0],"split_type":[0,0,0],"sum_hessian":[8.760862E1,5.0527473E1,3.7081146E1],"tree_param":{"num_deleted":"0","num_feature":"265","num_nodes":"3","size_leaf_vector":"1"}},{"base_weights":[-1.10092126E-1,7.38015E-1,-1.6458744E-2,2.2444475E-2,1.0048866E-2],"categories":[],"categories_nodes":[],"categories_segments":[],"categories_sizes":[],"default_left":[0,0,0,0,0],"id":140,"left_children":[1,3,-1,-1,-1],"loss_changes":[2.9422798E1,3.005867E-1,0E0,0E0,0E0],"parents":[2147483647,0,0,1,1],"right_children":[2,4,-1,-1,-1],"split_conditions":[3.1415657E-5,3.832702E-4,-1.6458744E-2,2.2444475E-2,1.0048866E-2],"split_indices":[73,129,0,0,0],"split_type":[0,0,0,0,0],"sum_hessian":[7.567768E1,2.6426403E1,4.9251278E1,2.4123058E1,2.3033464E0],"tree_param":{"num_deleted":"0","num_feature":"265","num_nodes":"5","size_leaf_vector":"1"}},{"base_weights":[-5.195664E-3,7.3235005E-1,-1.6366104E-2,1.1702292E-2,2.1884182E-2],"categories":[],"categories_nodes":[],"categories_segments":[],"categories_sizes":[],"default_left":[0,0,0,0,0],"id":141,"left_children":[1,3,-1,-1,-1],"loss_changes":[3.273534E1,1.6962433E-1,0E0,0E0,0E0],"parents":[2147483647,0,0,1,1],"right_children":[2,4,-1,-1,-1],"split_conditions":[1.0607908E-4,1.4495879E-4,-1.6366104E-2,1.1702292E-2,2.1884182E-2],"split_indices":[28,154,0,0,0],"split_type":[0,0,0,0,0],"sum_hessian":[7.920058E1,3.4080093E1,4.512048E1,2.2507424E0,3.1829351E1],"tree_param":{"num_deleted":"0","num_feature":"265","num_nodes":"5","size_leaf_vector":"1"}},{"base_weights":[-1.4478638E-2,7.3128444E-1,-1.6396351E-2,6.0788747E-3,2.229887E-2],"categories":[],"categories_nodes":[],"categories_segments":[],"categories_sizes":[],"default_left":[0,0,0,0,0],"id":142,"left_children":[1,3,-1,-1,-1],"loss_changes":[3.160095E1,5.777588E-1,0E0,0E0,0E0],"parents":[2147483647,0,0,1,1],"right_children":[2,4,-1,-1,